3.344229161739349365e-01,5.256929397583007812e-01,4.090909659862518311e-02,-5.259914323687553406e-03,-5.554950237274169922e-01,-3.876737505197525024e-02,-2.641239948570728302e-02,-8.382503688335418701e-02,4.088468253612518311e-01,1.530597545206546783e-02,-4.959862306714057922e-02,1.255236417055130005e-01,-3.834307566285133362e-02,2.157907783985137939e-01,-1.525460034608840942e-01,3.589498251676559448e-02,-3.369950056076049805e-01,7.367639988660812378e-02,4.743798449635505676e-02,-1.055075526237487793e-01,1.927514821290969849e-01,-7.501254677772521973e-01,-9.582394957542419434e-01,-3.533582091331481934e-01,7.598218321800231934e-02,-2.386494725942611694e-01,-4.103103280067443848e-01,1.788960397243499756e-01,-1.115438342094421387e-01,-6.873503327369689941e-02,-1.172343716025352478e-01,-6.636502146720886230e-01
-5.234122276306152344e-02,-6.470012664794921875e-02,1.510330438613891602e-01,-8.322983980178833008e-02,-8.571869134902954102e-02,-2.442722320556640625e-01,1.565504074096679688e-02,2.422261834144592285e-01,-8.377581834793090820e-02,-2.101486325263977051e-01,-3.086119890213012695e-02,3.749245405197143555e-02,-4.625976085662841797e-02,2.185773253440856934e-01,-9.941935539245605469e-03,-1.667758226394653320e-01,1.114262938499450684e-01,1.449263691902160645e-01,5.050551891326904297e-02,-7.269972562789916992e-02,-1.790459156036376953e-01,-1.246140003204345703e-01,2.410411834716796875e-02,-1.877740621566772461e-01,2.243843674659729004e-01,5.884051322937011719e-03,-1.589707136154174805e-01,6.072324514389038086e-02,2.315756082534790039e-01,2.438587546348571777e-01,5.717599391937255859e-02,-7.920920848846435547e-02
4.681867361068725586e-01,-1.658446639776229858e-01,-2.484282292425632477e-02,3.737802803516387939e-01,4.749615490436553955e-02,4.846118092536926270e-01,2.841160297393798828e-01,2.399531751871109009e-01,6.139408424496650696e-02,2.494435608386993408e-01,-1.977641433477401733e-01,-1.881245970726013184e-01,-5.501097068190574646e-02,6.612313389778137207e-01,7.779730558395385742e-01,2.512503564357757568e-01,-7.483229041099548340e-01,-2.429882064461708069e-02,-2.482473850250244141e-01,1.139574795961380005e-01,-3.346453011035919189e-01,2.674955725669860840e-01,1.982851773500442505e-01,3.509375751018524170e-01,-9.541440755128860474e-02,-2.649124562740325928e-01,2.219584882259368896e-01,4.236434400081634521e-01,3.690030574798583984e-01,1.954020708799362183e-01,1.518748104572296143e-01,-1.214336633682250977e+00
4.063699543476104736e-01,-1.207647472620010376e-02,-7.798573374748229980e-02,3.057969212532043457e-01,1.470892727375030518e-01,-4.864842295646667480e-01,1.577847599983215332e-01,-1.551971584558486938e-01,-1.959985941648483276e-01,-2.405302226543426514e-01,5.687605142593383789e-01,-2.480701208114624023e-01,5.144944787025451660e-01,-1.968419179320335388e-02,-3.699871003627777100e-01,5.178105235099792480e-01,4.334373176097869873e-01,1.043602898716926575e-01,7.478768229484558105e-01,-5.017830133438110352e-01,2.671692073345184326e-01,-1.083887338638305664e+00,-3.678480684757232666e-01,-2.937841415405273438e-01,4.670304059982299805e-02,3.630967438220977783e-01,1.215841323137283325e-01,5.144296213984489441e-02,-5.068564414978027344e-02,1.796720027923583984e-01,-4.633298516273498535e-01,-9.641025960445404053e-02
-2.163796424865722656e-01,4.685510993003845215e-01,1.514888405799865723e-01,9.150000661611557007e-02,-1.079121679067611694e-01,-7.806327939033508301e-02,-1.498344242572784424e-01,-2.777053117752075195e-01,-1.476155407726764679e-02,-1.444435715675354004e-01,1.765206456184387207e-01,1.411256492137908936e-01,4.438340663909912109e-01,1.129759773612022400e-01,-2.006523013114929199e-01,-3.913577497005462646e-01,-9.165281802415847778e-02,1.401998847723007202e-01,-3.553426265716552734e-01,-1.893278583884239197e-02,-4.547090828418731689e-01,3.115255236625671387e-01,5.086914822459220886e-02,1.600635051727294922e-01,1.019717603921890259e-01,3.549100656528025866e-04,-1.546229273080825806e-01,-1.893998384475708008e-01,1.666740924119949341e-01,-1.107530388981103897e-02,2.042348086833953857e-01,7.079965900629758835e-03
2.546559870243072510e-01,2.617824077606201172e-01,1.149283200502395630e-01,1.775071322917938232e-01,-2.530915439128875732e-01,1.184044480323791504e-01,-1.940555572509765625e-01,9.283494949340820312e-02,-1.772710084915161133e-01,-9.084283560514450073e-02,4.383551329374313354e-02,8.125772327184677124e-02,-2.644159197807312012e-01,4.937940090894699097e-02,-7.273163646459579468e-02,1.923479586839675903e-01,-1.614363938570022583e-01,2.789678275585174561e-01,-1.603043079376220703e-01,-6.503313779830932617e-02,1.353590041399002075e-01,-3.376536965370178223e-01,-1.536815315485000610e-01,6.015423312783241272e-02,2.943070828914642334e-01,9.467712603509426117e-03,2.477529272437095642e-02,-2.511478066444396973e-01,5.466465950012207031e-01,8.914417028427124023e-02,2.584813237190246582e-01,3.657276555895805359e-02
2.618348598480224609e-01,-1.467048674821853638e-01,5.235131457448005676e-02,-2.844643592834472656e-01,5.746600031852722168e-01,1.821231842041015625e-01,2.831038832664489746e-01,-2.348921746015548706e-01,1.285968273878097534e-01,4.066858813166618347e-02,-2.242153435945510864e-01,8.785311132669448853e-02,-1.741552650928497314e-01,-4.267067909240722656e-01,2.426612824201583862e-01,5.148587226867675781e-01,1.961260437965393066e-01,-2.610005624592304230e-02,-3.823223710060119629e-01,1.756758689880371094e-01,4.483024775981903076e-01,-1.137277781963348389e-01,8.648483455181121826e-02,5.122360587120056152e-02,-2.220274806022644043e-01,-1.010508060455322266e+00,2.864953316748142242e-02,-1.675243824720382690e-01,2.848406732082366943e-01,-9.397435188293457031e-01,2.320275753736495972e-01,1.510918885469436646e-01
1.782306730747222900e-01,-2.981121540069580078e-01,-1.164177134633064270e-01,-4.272316992282867432e-01,3.185631036758422852e-01,1.158180981874465942e-01,5.793842077255249023e-01,-2.567174434661865234e-01,3.222691714763641357e-01,-2.658029198646545410e-01,2.074905633926391602e-01,-1.638856679201126099e-01,2.845934331417083740e-01,-1.147492825984954834e-01,4.792394638061523438e-01,1.386006027460098267e-01,2.991276085376739502e-01,-1.715720295906066895e-01,4.047284722328186035e-01,1.744095385074615479e-01,-2.499587386846542358e-01,-1.882833540439605713e-01,2.639550566673278809e-01,-1.814685761928558350e-01,1.019444614648818970e-01,6.611841917037963867e-02,-7.941935062408447266e-01,-6.260066032409667969e-01,4.375364780426025391e-01,-4.989195615053176880e-02,1.649966239929199219e-01,-3.869163393974304199e-01
2.186779081821441650e-01,-2.056714594364166260e-01,3.421308472752571106e-02,-4.283323287963867188e-01,2.043076157569885254e-01,1.651968508958816528e-01,4.816583693027496338e-01,-1.330603659152984619e-01,1.555540114641189575e-01,2.058191150426864624e-01,1.237644925713539124e-01,-1.270891427993774414e-01,1.678973250091075897e-02,-2.361722588539123535e-01,4.112590849399566650e-01,1.577499359846115112e-01,-1.485180705785751343e-01,2.895430289208889008e-02,2.105514556169509888e-01,-1.702577620744705200e-01,3.950642794370651245e-02,1.024314984679222107e-01,2.653783857822418213e-01,-2.211400121450424194e-02,1.960422247648239136e-01,1.660914719104766846e-01,-2.130649983882904053e-02,7.333038747310638428e-02,-1.655217260122299194e-03,2.980224192142486572e-01,-8.517319709062576294e-02,-1.452993750572204590e-01
2.901959121227264404e-01,1.248672455549240112e-01,-2.743113040924072266e-01,3.303911089897155762e-01,-5.942453742027282715e-01,6.027495488524436951e-02,4.641766250133514404e-01,9.623672813177108765e-02,1.516727656126022339e-01,8.080922067165374756e-02,2.707642912864685059e-01,-2.196986228227615356e-01,3.244595527648925781e-01,-1.798065900802612305e-01,-1.031361147761344910e-02,-1.652480810880661011e-01,3.919290378689765930e-02,-4.457620903849601746e-03,4.210984334349632263e-02,5.551174283027648926e-02,1.042380183935165405e-01,-1.254200100898742676e+00,-1.584762334823608398e-01,5.186370015144348145e-02,1.037818491458892822e-01,2.332222461700439453e-01,-8.526134490966796875e-01,-3.344013169407844543e-02,2.022517919540405273e-01,1.450109034776687622e-01,2.909045517444610596e-01,2.288185507059097290e-01
-2.837263345718383789e-01,-9.621047973632812500e-02,2.915384471416473389e-01,-5.270196706987917423e-04,1.028226986527442932e-01,4.584720730781555176e-02,-2.223837822675704956e-01,2.284681648015975952e-01,-3.053938448429107666e-01,2.819508314132690430e-01,1.275207251310348511e-01,-9.435276687145233154e-02,-1.001829057931900024e-01,-1.498846858739852905e-01,-2.777228355407714844e-01,1.090227514505386353e-01,2.869824171066284180e-01,3.828033804893493652e-01,-2.340091615915298462e-01,-1.841180175542831421e-01,-4.604985415935516357e-01,-4.087385535240173340e-02,-2.389359623193740845e-01,-1.729214638471603394e-01,2.264011949300765991e-01,5.490795150399208069e-02,-1.708622789010405540e-03,-1.332201808691024780e-01,3.759852647781372070e-01,1.966295540332794189e-01,1.195168867707252502e-02,2.438773214817047119e-01
2.783962786197662354e-01,-1.492935791611671448e-02,3.391761779785156250e-01,3.230634331703186035e-02,3.413533326238393784e-03,-6.054959073662757874e-02,1.894764900207519531e-01,-4.978926852345466614e-02,-6.651625782251358032e-02,-2.112394720315933228e-01,-2.191587835550308228e-01,-2.313660383224487305e-01,1.462463140487670898e-01,-2.550844550132751465e-01,3.616174161434173584e-01,2.675730288028717041e-01,-2.050885260105133057e-01,2.385781109333038330e-01,-2.667126357555389404e-01,2.189235687255859375e-01,-1.207849197089672089e-02,1.378902643918991089e-01,3.440779447555541992e-01,1.433163695037364960e-02,-7.529062032699584961e-02,-3.417167961597442627e-01,-1.548932343721389771e-01,6.450930982828140259e-02,-2.515563368797302246e-01,-5.178251862525939941e-01,1.356841921806335449e-01,-5.726815462112426758e-01
2.633377015590667725e-01,-2.259802073240280151e-01,-1.290581077337265015e-01,-1.590397059917449951e-01,1.694453656673431396e-01,1.137034744024276733e-01,2.576482594013214111e-01,-2.348440000787377357e-03,1.001047268509864807e-01,-5.286394432187080383e-02,-1.007965654134750366e-01,-2.413191795349121094e-01,3.716039061546325684e-01,-6.203762441873550415e-02,-2.124937772750854492e-01,1.876502484083175659e-02,2.628180012106895447e-02,-2.966761291027069092e-01,2.313904017210006714e-01,-2.216429561376571655e-01,2.570137679576873779e-01,1.074819266796112061e-01,3.355309963226318359e-01,5.142982304096221924e-02,-6.965591758489608765e-02,3.187183439731597900e-01,-2.055348604917526245e-01,-2.578594721853733063e-02,2.906115055084228516e-01,-1.513028889894485474e-01,2.297117561101913452e-01,3.991221487522125244e-01
-7.989645004272460938e-03,5.219221115112304688e-03,-4.749548435211181641e-02,1.521521806716918945e-01,-1.509317755699157715e-01,-1.939595341682434082e-01,1.542659401893615723e-01,2.140250205993652344e-01,-3.392273187637329102e-02,3.277873992919921875e-02,1.363825798034667969e-01,-2.023431062698364258e-01,1.593933701515197754e-01,-2.171769738197326660e-01,-1.391271352767944336e-01,-7.592171430587768555e-02,1.775452494621276855e-01,-3.504437208175659180e-02,1.353121399879455566e-01,-1.959800720214843750e-02,-3.404611349105834961e-02,-2.300633192062377930e-01,-3.802496194839477539e-02,-5.395770072937011719e-02,-1.820133328437805176e-01,-1.202551126480102539e-01,-2.395170331001281738e-01,-2.354177236557006836e-01,-1.618469357490539551e-01,5.290877819061279297e-02,3.616529703140258789e-02,-1.485810875892639160e-01
-1.455555707216262817e-01,3.935553729534149170e-01,1.731888800859451294e-01,2.922956049442291260e-01,7.429061084985733032e-02,2.653523385524749756e-01,1.856851577758789062e-01,6.205567717552185059e-01,2.719763815402984619e-01,-8.073253184556961060e-02,-2.415479421615600586e-01,-2.153654582798480988e-02,-1.763018034398555756e-02,3.184568583965301514e-01,6.515946984291076660e-02,-5.320181250572204590e-01,2.003275752067565918e-01,2.278894037008285522e-01,4.611032083630561829e-02,2.329572141170501709e-01,-1.159718990325927734e+00,-3.087942600250244141e-01,2.394581884145736694e-01,1.365720331668853760e-01,1.945169456303119659e-02,4.917616248130798340e-01,4.142016470432281494e-01,1.916687488555908203e-01,-3.991562426090240479e-01,-2.608971893787384033e-01,-3.528037294745445251e-02,7.697695493698120117e-02
1.573326140642166138e-01,6.402516365051269531e-02,2.348118573427200317e-01,2.393610924482345581e-01,-8.185642361640930176e-01,-2.618831098079681396e-01,-3.401175141334533691e-01,4.143026098608970642e-02,-1.121026128530502319e-01,-1.577728986740112305e-01,6.951764225959777832e-04,-1.387225389480590820e-01,3.267014920711517334e-01,-4.721413180232048035e-02,-4.499924927949905396e-02,-5.097806826233863831e-02,-1.521073132753372192e-01,-2.115800529718399048e-01,-3.278506994247436523e-01,1.772635281085968018e-01,-3.375228494405746460e-02,7.562858611345291138e-02,-2.221120595932006836e-01,2.092489004135131836e-01,-2.884067893028259277e-01,-5.753958225250244141e-01,-3.893347680568695068e-01,1.533115506172180176e-01,1.401104629039764404e-01,-3.065725564956665039e-01,-7.520489394664764404e-03,-3.289253711700439453e-01
-9.194388240575790405e-02,-8.742927759885787964e-02,2.822690010070800781e-01,1.564516574144363403e-01,2.899816632270812988e-01,3.710303902626037598e-01,-1.318510770797729492e-01,-1.603794544935226440e-01,7.123090326786041260e-02,4.196872711181640625e-01,-1.261584926396608353e-02,-1.390537470579147339e-01,-5.010036230087280273e-01,-3.117464482784271240e-01,4.018648564815521240e-01,2.800269126892089844e-01,-2.023946791887283325e-01,-1.252183169126510620e-01,-4.270118102431297302e-02,8.315397053956985474e-02,5.747998952865600586e-01,-2.213172167539596558e-01,1.417694091796875000e-01,3.101743012666702271e-02,-1.730325073003768921e-01,-1.176061555743217468e-01,-3.405195772647857666e-01,2.364557385444641113e-01,1.560630351305007935e-01,-2.625100314617156982e-03,3.983765840530395508e-01,4.895527958869934082e-01
3.768219649791717529e-01,3.704936802387237549e-01,2.779485583305358887e-01,-2.637158632278442383e-01,-7.356158494949340820e-01,-7.182031124830245972e-02,-4.987911581993103027e-01,3.794475495815277100e-01,1.251178830862045288e-01,3.809602856636047363e-01,-3.911941498517990112e-02,-1.252016723155975342e-01,-1.081798672676086426e-01,-1.311919302679598331e-03,-6.942500472068786621e-01,3.706280291080474854e-01,-1.460197865962982178e-01,-1.233920529484748840e-01,-8.746578544378280640e-02,-1.471007913351058960e-01,2.051103413105010986e-01,-5.449040532112121582e-01,-5.446578264236450195e-01,-1.252584606409072876e-01,-2.025392502546310425e-01,-2.358808517456054688e-01,6.662586331367492676e-02,1.989586204290390015e-01,4.078496992588043213e-01,2.420541048049926758e-01,-1.226003021001815796e-01,4.065726399421691895e-01
-5.604495108127593994e-02,2.824048101902008057e-01,1.882768571376800537e-01,-4.840846359729766846e-02,-1.739637702703475952e-01,-8.420392125844955444e-02,-2.864656150341033936e-01,5.253523960709571838e-02,-1.526796072721481323e-01,1.514802277088165283e-01,7.083071768283843994e-02,-7.504115253686904907e-02,-1.135350465774536133e-01,-2.354876995086669922e-01,1.952130347490310669e-01,3.257642090320587158e-01,1.563871502876281738e-01,5.906996503472328186e-02,1.317173540592193604e-01,1.661694496870040894e-01,-4.173258319497108459e-03,8.456219732761383057e-02,-1.646839827299118042e-01,2.988488078117370605e-01,5.838116258382797241e-02,-1.498620957136154175e-01,1.771563738584518433e-01,1.664361804723739624e-01,2.328832000494003296e-01,-2.233118414878845215e-01,1.669506132602691650e-01,-2.015150636434555054e-01
5.277161598205566406e-01,-1.541733741760253906e-02,-5.702333152294158936e-02,5.621395260095596313e-02,-9.725329279899597168e-01,-1.598477065563201904e-01,2.358980625867843628e-01,-1.878098100423812866e-01,4.844443500041961670e-01,1.152583882212638855e-01,4.202156066894531250e-01,-2.303686738014221191e-02,7.015468478202819824e-01,4.229261577129364014e-01,1.807423830032348633e-01,4.236958026885986328e-01,3.776345252990722656e-01,-2.181567996740341187e-01,5.835908651351928711e-01,-1.814559400081634521e-01,-4.093069210648536682e-02,-1.206372156739234924e-01,3.688344359397888184e-01,-2.875265777111053467e-01,3.732755184173583984e-01,3.760705590248107910e-01,-1.936157643795013428e-01,6.723944842815399170e-02,1.939979642629623413e-01,4.202995896339416504e-01,1.698619686067104340e-02,-1.518162935972213745e-01
1.092177480459213257e-01,-1.195596680045127869e-01,-4.435472190380096436e-02,-1.871743947267532349e-01,-5.272388458251953125e-02,1.801250129938125610e-01,1.561286151409149170e-01,9.433065354824066162e-02,-6.953424960374832153e-02,-1.450384855270385742e-01,-9.300792962312698364e-02,-5.763369798660278320e-02,-1.224926784634590149e-01,-1.156225800514221191e-01,2.241686433553695679e-01,1.220732629299163818e-01,-3.659447282552719116e-02,-1.981468647718429565e-01,-2.803207188844680786e-02,-2.764202058315277100e-01,-1.453381925821304321e-01,1.445905864238739014e-01,-1.764109581708908081e-01,3.300645202398300171e-02,1.443726867437362671e-01,1.056558713316917419e-01,-5.758737213909626007e-03,1.499728560447692871e-01,9.160137176513671875e-02,1.149349808692932129e-01,-1.782387942075729370e-01,2.132346481084823608e-02
-4.495985209941864014e-01,3.059148192405700684e-01,1.971663236618041992e-01,-5.765902996063232422e-02,5.029826611280441284e-02,-5.554935708642005920e-02,8.802876807749271393e-03,-6.650894880294799805e-02,1.351425517350435257e-02,-5.539691448211669922e-01,-2.099683135747909546e-01,7.615086436271667480e-02,-4.141790792346000671e-02,-1.836042106151580811e-01,1.756404489278793335e-01,-1.896650791168212891e-01,2.086141556501388550e-01,1.395737230777740479e-01,2.242423146963119507e-01,3.807968199253082275e-01,-9.955067187547683716e-02,7.993233203887939453e-02,-1.169665604829788208e-01,3.743418455123901367e-01,3.701718747615814209e-01,1.883289068937301636e-01,1.312561631202697754e-01,4.484665393829345703e-01,2.477041482925415039e-01,-8.309046030044555664e-01,-3.721011057496070862e-02,-1.476320028305053711e-01
1.454701274633407593e-01,2.280803322792053223e-01,-2.608658671379089355e-01,-6.603155732154846191e-01,3.022792339324951172e-01,8.621369302272796631e-02,1.255160272121429443e-01,-2.726809680461883545e-01,1.852791011333465576e-01,-2.979906797409057617e-01,-1.427459716796875000e-01,-1.112360507249832153e-01,3.649024665355682373e-01,9.898123331367969513e-03,3.485434353351593018e-01,-1.397321224212646484e-01,-5.273882150650024414e-01,2.667515575885772705e-01,-9.244472533464431763e-02,2.523926794528961182e-01,-5.612135678529739380e-02,4.965544864535331726e-02,3.324382305145263672e-01,4.622016251087188721e-01,3.367888033390045166e-01,1.089088991284370422e-01,2.916064262390136719e-01,-5.216997116804122925e-02,4.372624456882476807e-01,-1.496172904968261719e+00,-1.028346642851829529e-01,-3.298444151878356934e-01
2.266126871109008789e-01,-7.815372943878173828e-02,1.914745569229125977e-01,-2.108613848686218262e-01,1.198488473892211914e-01,-1.398665904998779297e-01,-2.033612728118896484e-01,-1.835086345672607422e-01,-1.249612569808959961e-01,-1.356223225593566895e-01,-1.201965808868408203e-01,-1.988803744316101074e-01,2.149181365966796875e-01,6.964862346649169922e-03,1.495321989059448242e-01,2.368379235267639160e-01,-1.672821640968322754e-01,2.173435688018798828e-02,-9.851145744323730469e-02,-7.464349269866943359e-02,1.335136890411376953e-01,1.942420601844787598e-01,1.065673828125000000e-01,2.450841665267944336e-01,-7.176929712295532227e-02,-1.284015774726867676e-01,-6.010788679122924805e-02,-2.201309800148010254e-01,-1.317003965377807617e-01,-2.293312549591064453e-02,1.507657170295715332e-01,2.395330071449279785e-01
2.914220988750457764e-01,5.068184733390808105e-01,1.759510338306427002e-01,1.603947132825851440e-01,-7.667858898639678955e-02,-2.308746129274368286e-01,-4.952728152275085449e-01,2.429907768964767456e-01,-4.524297080934047699e-03,8.030737936496734619e-02,-9.199814498424530029e-02,-2.445069253444671631e-01,-8.671283721923828125e-02,-3.233146667480468750e-01,-4.414251074194908142e-02,2.360143214464187622e-01,-1.392396390438079834e-01,-5.215035080909729004e-01,1.434853672981262207e-01,3.361846208572387695e-01,2.037076354026794434e-01,-6.492056250572204590e-01,-5.553712844848632812e-01,1.061825826764106750e-01,9.831356257200241089e-02,2.955466508865356445e-01,-6.435642242431640625e-01,4.154151678085327148e-01,2.075741589069366455e-01,-1.186725795269012451e-01,-1.532715409994125366e-01,2.376496940851211548e-01
1.608866453170776367e-01,9.210783243179321289e-02,-7.721543312072753906e-02,1.419990062713623047e-01,2.093101143836975098e-01,9.804505109786987305e-02,-2.060568332672119141e-01,4.102206230163574219e-02,-5.041587352752685547e-02,1.883405447006225586e-01,-4.348015785217285156e-02,1.997375488281250000e-02,-2.129529118537902832e-01,2.361907362937927246e-01,5.857950448989868164e-02,1.139038801193237305e-01,1.511188745498657227e-01,1.712276935577392578e-01,-2.058323025703430176e-01,1.999614238739013672e-01,-2.250168323516845703e-01,-9.634077548980712891e-03,-1.108334660530090332e-01,7.156610488891601562e-02,9.304803609848022461e-02,1.420402526855468750e-01,5.563563108444213867e-02,-1.293311715126037598e-01,-3.989720344543457031e-02,-1.733034849166870117e-02,5.957603454589843750e-03,-5.255067348480224609e-02
-2.486342340707778931e-01,3.005853295326232910e-02,1.705347746610641479e-01,2.085501104593276978e-01,2.177094221115112305e-01,1.937357336282730103e-01,-1.041208058595657349e-01,7.374951243400573730e-02,-1.521585285663604736e-01,-3.616861104965209961e-01,6.912474334239959717e-02,-2.649695873260498047e-01,-1.494005471467971802e-01,1.660333126783370972e-01,2.979166805744171143e-01,-3.814315423369407654e-02,-2.072708457708358765e-01,1.036808546632528305e-02,-4.263223335146903992e-02,2.142376601696014404e-01,-4.431777894496917725e-01,8.580023050308227539e-02,5.545765906572341919e-02,3.126156330108642578e-01,2.417298555374145508e-01,1.157101690769195557e-01,-1.311384439468383789e-01,-7.407037168741226196e-02,-5.452766641974449158e-02,1.334432512521743774e-01,-6.991031765937805176e-02,-6.812578439712524414e-01
1.387673169374465942e-01,2.191196829080581665e-01,1.127394810318946838e-01,-9.647350013256072998e-02,-7.762011140584945679e-03,-1.258765459060668945e-01,-6.331738829612731934e-02,8.678983896970748901e-02,-4.531602263450622559e-01,2.210866808891296387e-01,4.549426212906837463e-02,1.540943384170532227e-01,1.719417423009872437e-01,-7.403932809829711914e-01,-2.344714477658271790e-02,2.246733754873275757e-01,1.634603142738342285e-01,-2.161521762609481812e-01,2.221845537424087524e-01,1.678246408700942993e-01,4.485364854335784912e-01,-1.097247470170259476e-02,-1.632677316665649414e-01,-2.412070930004119873e-01,1.822914928197860718e-01,-5.967893451452255249e-02,-2.772540450096130371e-01,9.998099505901336670e-02,3.693860471248626709e-01,4.236549884080886841e-02,-1.034098640084266663e-01,6.381977349519729614e-02
2.339906096458435059e-01,2.824201285839080811e-01,7.430814206600189209e-02,-3.188382834196090698e-02,-1.106534481048583984e+00,-4.960587024688720703e-01,9.730514138936996460e-02,-1.830087602138519287e-01,4.782397300004959106e-02,-3.271844089031219482e-01,3.963726758956909180e-01,-2.056136131286621094e-01,3.196099698543548584e-01,-2.516058981418609619e-01,8.981665223836898804e-02,1.736241281032562256e-01,9.591538906097412109e-01,4.028052687644958496e-01,3.431991934776306152e-01,-2.926290333271026611e-01,-9.106773138046264648e-01,4.049715101718902588e-01,7.884754240512847900e-02,-1.471188068389892578e-01,5.892328023910522461e-01,2.650561332702636719e-01,-9.128773212432861328e-02,4.189137220382690430e-01,4.043809175491333008e-01,1.177207827568054199e+00,-5.970103740692138672e-01,-7.287389039993286133e-01
3.141293525695800781e-01,2.227816917002201080e-02,-2.033736705780029297e-01,-4.335886836051940918e-01,-8.228878378868103027e-01,-9.134361743927001953e-01,2.982383072376251221e-01,7.309703528881072998e-02,-7.999306917190551758e-02,-5.331649184226989746e-01,9.380009174346923828e-01,1.886529624462127686e-01,3.888443410396575928e-01,-1.900005936622619629e-01,-4.672066569328308105e-01,1.715987175703048706e-02,5.543314218521118164e-01,-2.392942309379577637e-01,5.577065944671630859e-01,-5.506096482276916504e-01,2.707700133323669434e-01,-1.726428717374801636e-01,-5.901825428009033203e-01,-6.284928321838378906e-01,3.430735468864440918e-01,1.633045524358749390e-01,-6.837723255157470703e-01,-1.981286853551864624e-01,-5.340783596038818359e-01,2.734730839729309082e-01,-3.198093175888061523e-01,-1.579864919185638428e-01
2.448412179946899414e-01,-5.188006162643432617e-01,-2.544123232364654541e-01,3.473529815673828125e-01,-5.748299956321716309e-01,3.990727365016937256e-01,3.791241645812988281e-01,-3.697765991091728210e-02,3.948571979999542236e-01,1.300268713384866714e-02,-2.633062899112701416e-01,1.691022366285324097e-01,-3.263330459594726562e-01,2.543612420558929443e-01,4.048535227775573730e-01,3.386639356613159180e-01,-2.305144220590591431e-01,-2.406878918409347534e-01,-2.561153471469879150e-01,6.730902194976806641e-01,1.650641299784183502e-02,4.780761003494262695e-01,1.992796212434768677e-01,2.129230797290802002e-01,-4.112443029880523682e-01,-8.475759625434875488e-01,8.756193518638610840e-02,-5.104641914367675781e-01,-1.076449900865554810e-01,6.174777448177337646e-02,5.964598655700683594e-01,-3.494620919227600098e-01
-1.403165012598037720e-01,2.054650336503982544e-01,3.479073047637939453e-01,1.829978078603744507e-01,-5.332929082214832306e-03,-3.582715988159179688e-02,1.393791437149047852e-01,1.014501228928565979e-01,1.146168168634176254e-02,5.013788342475891113e-01,1.102041751146316528e-01,-1.829682588577270508e-01,2.804951071739196777e-01,1.399649679660797119e-01,-9.378600865602493286e-03,-1.639212816953659058e-01,2.790303826332092285e-01,1.344406008720397949e-01,7.090904563665390015e-02,3.291348218917846680e-01,-5.962651968002319336e-01,2.577692270278930664e-01,-1.900869607925415039e-01,4.004387259483337402e-01,-1.045925617218017578e-01,-5.741890892386436462e-02,-1.521991491317749023e-01,-1.899929493665695190e-01,3.189512193202972412e-01,-2.364203780889511108e-01,3.535721600055694580e-01,-1.508191525936126709e-01
6.138794422149658203e-01,1.526295393705368042e-01,1.772775948047637939e-01,6.869354248046875000e-01,-1.943915843963623047e+00,1.122790947556495667e-01,-4.165844619274139404e-02,-3.383733704686164856e-02,-2.684496641159057617e-01,4.259376227855682373e-01,6.155700888484716415e-03,-2.154181003570556641e-01,-1.474336832761764526e-01,3.524456918239593506e-01,6.653842329978942871e-01,5.461498498916625977e-01,-1.532301306724548340e-01,-4.711105227470397949e-01,2.724412977695465088e-01,5.730403065681457520e-01,5.057784914970397949e-01,-1.034962907433509827e-01,-6.634627580642700195e-01,3.075916171073913574e-01,-3.450025022029876709e-01,-5.625380277633666992e-01,-1.144904121756553650e-01,-7.151548862457275391e-01,5.618824958801269531e-01,-4.771096110343933105e-01,1.994192600250244141e-01,2.332923002541065216e-02
1.979743093252182007e-01,-1.336061656475067139e-01,-1.619037985801696777e-01,-5.144770145416259766e-01,-5.156544502824544907e-04,-1.870265901088714600e-01,3.273459970951080322e-01,-2.881269454956054688e-01,3.054548203945159912e-01,9.870673716068267822e-02,-4.903267696499824524e-02,-1.316621303558349609e-01,1.599420905113220215e-01,6.160031259059906006e-02,3.526585698127746582e-01,-5.395292043685913086e-01,-6.682594865560531616e-02,2.442334890365600586e-01,-2.245243638753890991e-02,-5.932831391692161560e-02,-1.333736330270767212e-01,5.399044230580329895e-02,4.096220135688781738e-01,-1.466809511184692383e-01,5.861090496182441711e-03,1.651461124420166016e-01,-2.674260437488555908e-01,1.566175818443298340e-01,-2.294158190488815308e-01,4.657917618751525879e-01,4.161621034145355225e-01,1.845432259142398834e-02
-1.786807775497436523e-01,-3.767814114689826965e-02,-1.723455265164375305e-02,-4.127680361270904541e-01,2.317059412598609924e-02,-1.525292098522186279e-01,-9.130827337503433228e-02,2.737755477428436279e-01,5.120506882667541504e-01,1.274525225162506104e-01,-1.574567705392837524e-02,-1.701545715332031250e-01,2.669010758399963379e-01,3.787924051284790039e-01,-5.375031828880310059e-01,1.705485731363296509e-01,6.240239366888999939e-02,1.797045618295669556e-01,-1.191721037030220032e-01,1.128235310316085815e-01,-2.291939705610275269e-01,7.005533576011657715e-02,-5.968346819281578064e-02,-2.519207634031772614e-02,-7.575855404138565063e-02,2.008112221956253052e-01,1.145292073488235474e-01,-2.272052168846130371e-01,-4.564255475997924805e-02,-9.763405472040176392e-02,-2.827325463294982910e-01,8.875305950641632080e-02
6.425101757049560547e-01,-2.909990847110748291e-01,-1.062222868204116821e-01,-5.239179730415344238e-02,6.179472804069519043e-02,-4.118594527244567871e-01,3.561525642871856689e-01,1.156178712844848633e-01,4.671738445758819580e-01,8.057124167680740356e-02,2.848383486270904541e-01,1.252354681491851807e-01,-1.306684315204620361e-01,4.184345602989196777e-01,-4.243107140064239502e-01,3.677678704261779785e-01,1.357100754976272583e-01,1.374182254076004028e-01,5.241831541061401367e-01,-7.990597188472747803e-02,-6.769793033599853516e-01,3.785354197025299072e-01,4.673815146088600159e-02,-2.555109746754169464e-02,-1.757415235042572021e-01,1.744317263364791870e-01,2.033602744340896606e-01,-1.953805387020111084e-01,2.692753672599792480e-01,-4.667028486728668213e-01,-1.600702404975891113e-01,1.227780207991600037e-01
-4.422281086444854736e-01,3.629927337169647217e-01,5.473455786705017090e-01,2.563867866992950439e-01,2.621006593108177185e-02,1.038084626197814941e-01,-2.254805564880371094e-01,5.159908533096313477e-01,-5.254088044166564941e-01,9.343813359737396240e-02,2.250979244709014893e-01,-2.279831618070602417e-01,-8.273074030876159668e-02,-2.842139303684234619e-01,-3.333740234375000000e-01,-4.203504025936126709e-01,-3.842043578624725342e-01,1.765239797532558441e-02,2.294431477785110474e-01,-6.098086833953857422e-01,-1.488467585295438766e-02,-6.152855753898620605e-01,-1.961753964424133301e-01,-1.966224163770675659e-01,2.663235366344451904e-01,2.849517762660980225e-01,5.452051013708114624e-02,8.353530168533325195e-01,-6.114993691444396973e-01,1.195588707923889160e-02,1.592978090047836304e-01,-8.412186801433563232e-02
7.884615659713745117e-02,9.636634588241577148e-02,1.819091439247131348e-01,2.459429502487182617e-01,4.123836755752563477e-02,-7.343196868896484375e-02,-4.652988910675048828e-02,-1.860496401786804199e-01,2.487446665763854980e-01,1.706094741821289062e-01,-1.787058711051940918e-01,-1.478259563446044922e-01,-2.005609273910522461e-01,5.456846952438354492e-02,-6.207716464996337891e-02,4.120528697967529297e-03,-9.596633911132812500e-02,1.952648758888244629e-01,-9.865361452102661133e-02,2.104960680007934570e-01,-1.070034503936767578e-02,1.842350959777832031e-01,4.399454593658447266e-02,-2.599167823791503906e-02,-1.159219741821289062e-01,-1.567300558090209961e-01,-1.631243824958801270e-01,2.196106314659118652e-01,-6.267857551574707031e-02,1.022815704345703125e-03,-1.815412044525146484e-01,1.900898814201354980e-01
6.569166481494903564e-02,4.960418343544006348e-01,3.089905381202697754e-01,-8.935318887233734131e-02,-1.206959113478660583e-01,-6.144042313098907471e-02,-6.053691729903221130e-02,-1.860232204198837280e-01,-2.421232461929321289e-01,-2.580074034631252289e-02,-3.684585690498352051e-01,-2.066685557365417480e-01,-4.368152618408203125e-01,-7.530804723501205444e-02,-2.249614447355270386e-01,-2.137607783079147339e-01,-4.087533354759216309e-01,4.182620048522949219e-01,-1.705179959535598755e-01,1.901557445526123047e-01,-2.425540834665298462e-01,2.101334184408187866e-01,-1.502340137958526611e-01,-1.103730648756027222e-01,8.711189031600952148e-02,7.912057638168334961e-02,2.227554470300674438e-01,5.572306513786315918e-01,2.391844391822814941e-01,-2.925986982882022858e-02,3.968840464949607849e-02,-3.997588455677032471e-01
-1.219863146543502808e-01,2.017464041709899902e-01,-7.702717930078506470e-02,2.140034139156341553e-01,1.311333179473876953e-01,-7.150579243898391724e-02,1.243923883885145187e-02,1.929095536470413208e-01,-5.144793540239334106e-02,-7.898049056529998779e-02,-6.440820544958114624e-02,-1.907793879508972168e-01,1.669324934482574463e-01,9.098881483078002930e-02,-3.197026997804641724e-02,-1.887519508600234985e-01,2.076594084501266479e-01,1.309828609228134155e-01,1.829597726464271545e-02,1.461914479732513428e-01,-1.403471976518630981e-01,-3.783696889877319336e-02,-1.661713421344757080e-01,1.844181865453720093e-01,6.668586283922195435e-02,1.817012578248977661e-01,2.054151296615600586e-01,1.495203655213117599e-02,1.435270458459854126e-01,1.213598251342773438e-01,-2.039170563220977783e-01,-1.463371515274047852e-01
3.161199018359184265e-02,1.973392218351364136e-01,3.404134139418601990e-02,-2.508619129657745361e-01,-1.560736894607543945e-01,1.649278998374938965e-01,3.359462320804595947e-02,-1.040528059005737305e+00,3.706989064812660217e-02,-8.160055428743362427e-02,1.118565201759338379e-01,-2.532829940319061279e-01,2.570166587829589844e-01,5.041140690445899963e-02,-4.767388105392456055e-01,2.748525701463222504e-02,2.239411473274230957e-01,-2.249829173088073730e-01,2.426922470331192017e-01,1.149602234363555908e-01,2.066787565127015114e-03,2.689552903175354004e-01,3.811890780925750732e-01,4.227545578032732010e-03,1.465336531400680542e-01,3.372850716114044189e-01,2.568651735782623291e-01,5.880708806216716766e-03,1.065129712224006653e-01,-3.684131205081939697e-01,-2.304526567459106445e-01,5.906708911061286926e-02
9.469014592468738556e-03,-2.251448035240173340e-01,1.324711740016937256e-01,4.327342845499515533e-03,-1.383809745311737061e-01,4.377976655960083008e-01,-8.463440537452697754e-01,6.730495095252990723e-01,7.202611863613128662e-02,1.282514482736587524e-01,-6.227182149887084961e-01,9.132069349288940430e-02,-6.559552550315856934e-01,-1.118272989988327026e-01,7.857190445065498352e-03,-2.853934168815612793e-01,-6.489884257316589355e-01,-8.232687413692474365e-02,-2.854605615139007568e-01,4.790681004524230957e-01,1.315195411443710327e-01,-9.643688797950744629e-01,-3.440805077552795410e-01,2.348642796277999878e-01,-3.037786185741424561e-01,-1.052720546722412109e+00,-4.458123818039894104e-02,5.144809484481811523e-01,-3.418992161750793457e-01,1.740335226058959961e-01,8.193436264991760254e-01,6.685369610786437988e-01
9.667564183473587036e-02,-1.843829825520515442e-02,-3.583217859268188477e-01,-4.130770862102508545e-01,-2.362307310104370117e-01,-3.025066256523132324e-01,-9.218490868806838989e-02,1.749102920293807983e-01,4.967954456806182861e-01,-4.017054438591003418e-01,2.791745066642761230e-01,-5.333590507507324219e-02,-4.096620678901672363e-01,-4.936605691909790039e-01,5.711613222956657410e-02,2.353107482194900513e-01,1.176051795482635498e-03,-3.340601623058319092e-01,-1.821205317974090576e-01,4.264724850654602051e-01,2.330160886049270630e-01,-2.392038851976394653e-01,1.859178952872753143e-02,3.249369263648986816e-01,-2.754921317100524902e-01,-2.440725117921829224e-01,-4.727468490600585938e-01,-4.233515560626983643e-01,3.914880752563476562e-01,-1.081987190991640091e-02,3.401277065277099609e-01,3.129924237728118896e-01
-1.777968406677246094e-01,-6.813243962824344635e-04,3.598864674568176270e-01,6.384354829788208008e-02,-2.186353653669357300e-01,-4.570484757423400879e-01,2.442931085824966431e-01,-9.685168415307998657e-02,-1.758119910955429077e-01,-3.373261988162994385e-01,1.723089069128036499e-01,-1.288050860166549683e-01,1.105326414108276367e-01,3.103182613849639893e-01,-4.613727331161499023e-01,8.442896604537963867e-02,-1.654651314020156860e-01,1.969945430755615234e-02,-1.304297591559588909e-03,-3.220657110214233398e-01,-5.524749159812927246e-01,-1.755851656198501587e-01,-1.726852655410766602e-01,-4.223510995507240295e-02,3.130699992179870605e-01,2.850444912910461426e-01,-8.020940423011779785e-01,-4.471983313560485840e-01,7.719116806983947754e-01,1.909826844930648804e-01,-3.121212311089038849e-02,-2.657665014266967773e-01
4.455104768276214600e-01,-3.447721153497695923e-02,-1.904384791851043701e-02,1.527914106845855713e-01,4.052609801292419434e-01,-2.991833388805389404e-01,1.280740946531295776e-01,-2.700132429599761963e-01,2.142316475510597229e-02,1.446969509124755859e-01,4.436922669410705566e-01,-9.192754328250885010e-02,-1.294487863779067993e-01,-6.194835305213928223e-01,-1.804623007774353027e-01,3.537514805793762207e-01,3.951452374458312988e-01,2.350396290421485901e-02,4.181230962276458740e-01,-4.104695320129394531e-01,-1.508649438619613647e-01,-1.059849023818969727e+00,5.143545269966125488e-01,-5.428487658500671387e-01,7.684901356697082520e-02,-2.103632539510726929e-01,-4.058962222188711166e-03,-3.596961498260498047e-01,2.661554515361785889e-01,-6.654976606369018555e-01,-1.288048177957534790e-01,-9.747535735368728638e-02
-2.638762593269348145e-01,5.617854595184326172e-01,5.195265412330627441e-01,1.403371095657348633e-01,-3.372209668159484863e-01,-1.363165955990552902e-02,-9.910237044095993042e-02,-1.224670335650444031e-01,-1.544065475463867188e-01,7.981823384761810303e-02,-8.801492303609848022e-02,-1.933719813823699951e-01,1.879197955131530762e-01,-1.578046977519989014e-01,-1.492973417043685913e-01,-4.031713604927062988e-01,-7.996804267168045044e-02,3.747511208057403564e-01,1.171198580414056778e-02,-5.914320424199104309e-02,-6.535999774932861328e-01,-7.165569812059402466e-02,-1.470398753881454468e-01,-5.621436610817909241e-02,1.095197256654500961e-02,4.649718105792999268e-02,-4.157471284270286560e-02,2.994908690452575684e-01,2.202415019273757935e-01,-9.800273925065994263e-03,-2.339765727519989014e-01,1.619038730859756470e-02
-9.509503841400146484e-02,1.199016794562339783e-01,3.330646455287933350e-01,1.958623975515365601e-01,7.704350352287292480e-02,2.045789510011672974e-01,-6.970258802175521851e-02,-3.393765911459922791e-02,-1.853519976139068604e-01,2.531577050685882568e-01,4.049885272979736328e-02,-2.008519470691680908e-01,-8.289688080549240112e-02,-1.272385567426681519e-01,-6.869537830352783203e-01,6.942551583051681519e-03,3.408438265323638916e-01,2.610754370689392090e-01,-1.360226306132972240e-03,-4.707169905304908752e-02,-7.064172625541687012e-02,-1.496722400188446045e-01,5.414236709475517273e-02,2.847518958151340485e-02,2.101562470197677612e-01,-1.297382712364196777e-01,-1.283618211746215820e-01,1.606315225362777710e-01,3.581969439983367920e-01,-2.971951365470886230e-01,8.490385115146636963e-02,1.524137407541275024e-01
-2.279794812202453613e-01,-3.789996355772018433e-02,-3.978266939520835876e-02,-7.215488702058792114e-02,-2.416861057281494141e-02,-1.482957005500793457e-01,1.711521297693252563e-01,-7.520953565835952759e-02,1.146678701043128967e-01,7.851006835699081421e-02,8.543590456247329712e-02,-5.857795476913452148e-02,3.678036620840430260e-03,-2.360672503709793091e-02,-2.193737924098968506e-01,-9.952593594789505005e-02,1.447129994630813599e-01,4.581008106470108032e-02,-2.290918231010437012e-01,2.045046687126159668e-01,-1.844247430562973022e-01,1.668241322040557861e-01,8.184991776943206787e-02,-1.561416089534759521e-01,-1.656931638717651367e-02,-2.280728518962860107e-01,-1.178681850433349609e-03,1.036777868866920471e-01,-1.847135871648788452e-01,1.831233315169811249e-02,-1.384883821010589600e-01,-8.095002174377441406e-02
-4.156497865915298462e-02,-8.491075038909912109e-02,-1.647762507200241089e-01,-9.944827109575271606e-02,-5.626833438873291016e-02,-1.122896969318389893e-01,1.515099257230758667e-01,2.134570628404617310e-01,2.896581217646598816e-02,-9.927543252706527710e-02,2.152149379253387451e-01,3.222912549972534180e-02,-3.418136760592460632e-02,-1.532186865806579590e-01,1.831491738557815552e-01,9.907048195600509644e-02,2.380650863051414490e-02,-2.120012938976287842e-01,-1.266634762287139893e-01,1.724294424057006836e-01,-1.789044141769409180e-01,-2.192209810018539429e-01,2.216533571481704712e-01,-8.345346152782440186e-02,1.438035368919372559e-01,1.619145274162292480e-01,-6.295365095138549805e-02,2.016464471817016602e-01,-2.504519820213317871e-01,-2.116625905036926270e-01,-1.591103523969650269e-01,-8.129954338073730469e-03
-1.231029033660888672e-01,1.735718250274658203e-01,-1.638438701629638672e-01,9.918296337127685547e-02,2.264794111251831055e-01,-1.588253378868103027e-01,2.100723981857299805e-02,1.384698152542114258e-01,-4.311150312423706055e-02,1.668527722358703613e-01,5.416399240493774414e-02,-9.763807058334350586e-02,-3.395932912826538086e-02,2.410469055175781250e-01,3.504055738449096680e-02,-7.061004638671875000e-03,2.322195768356323242e-01,-2.141672968864440918e-01,1.582586765289306641e-02,-5.006533861160278320e-02,-3.580987453460693359e-02,-1.801392436027526855e-01,1.007505059242248535e-01,1.131789088249206543e-01,-9.056985378265380859e-03,-2.950406074523925781e-02,2.236704230308532715e-01,5.517542362213134766e-02,-2.261356115341186523e-01,-1.450591087341308594e-01,-1.245341300964355469e-01,2.378153800964355469e-01
1.243666410446166992e-01,-3.970597311854362488e-02,-2.282319068908691406e-01,-2.572103738784790039e-01,-1.012542992830276489e-01,1.205969899892807007e-01,-1.784171722829341888e-02,-4.949918687343597412e-01,-7.360369712114334106e-02,-3.090977668762207031e-01,3.347011804580688477e-01,1.044796332716941833e-01,5.013130307197570801e-01,3.949650228023529053e-01,-1.428560465574264526e-01,-1.828933209180831909e-01,2.027641385793685913e-01,4.190520644187927246e-01,2.350973337888717651e-01,2.835219725966453552e-03,-1.368807256221771240e-01,5.179543495178222656e-01,2.911071777343750000e-01,-1.603523492813110352e-01,1.109690964221954346e-01,4.185669720172882080e-01,2.663924992084503174e-01,3.634046018123626709e-01,3.589131534099578857e-01,-3.577728271484375000e-01,-2.651696205139160156e-01,-1.892641037702560425e-01
4.419331252574920654e-01,7.392281293869018555e-02,1.314915716648101807e-01,-1.182610169053077698e-02,-3.570620343089103699e-02,-1.758018434047698975e-01,-8.634854853153228760e-02,-1.903480291366577148e-02,8.160935342311859131e-02,9.966925531625747681e-02,3.616359233856201172e-01,-1.316726058721542358e-01,-5.819807574152946472e-02,-3.092625439167022705e-01,2.192045189440250397e-02,2.065189927816390991e-01,9.621509816497564316e-04,-3.153279423713684082e-01,1.218907535076141357e-01,2.176905274391174316e-01,1.198732703924179077e-01,-1.370750069618225098e+00,-7.367093563079833984e-01,-2.478770725429058075e-02,-1.850405782461166382e-01,3.162740468978881836e-01,-6.815323233604431152e-01,7.088065892457962036e-02,1.051715463399887085e-01,3.103636205196380615e-01,-1.947937309741973877e-01,1.607396155595779419e-01
7.774416804313659668e-01,-3.953929990530014038e-03,9.236768633127212524e-02,3.190449476242065430e-01,-1.132406443357467651e-01,-1.473067402839660645e-01,-2.394345961511135101e-02,1.061176508665084839e-01,1.383074373006820679e-01,-2.134004682302474976e-01,4.256419241428375244e-01,-1.224155817180871964e-02,-1.100166067481040955e-01,1.998767256736755371e-01,-4.129152894020080566e-01,5.366585683077573776e-03,2.850441336631774902e-01,-2.596333920955657959e-01,4.326552152633666992e-01,-1.196864917874336243e-01,2.012833803892135620e-01,3.996243178844451904e-01,1.032795235514640808e-01,-2.464889883995056152e-01,3.677183762192726135e-02,3.120701611042022705e-01,1.027673855423927307e-01,2.696731686592102051e-01,-1.206283643841743469e-01,-7.343553751707077026e-02,-3.154929876327514648e-01,-6.767785549163818359e-01
1.159056723117828369e-01,-1.889686733484268188e-01,5.608363449573516846e-02,1.166147366166114807e-01,-3.921487629413604736e-01,5.862513780593872070e-01,-1.071767657995223999e-01,-8.664321154356002808e-02,3.519096374511718750e-01,1.606112718582153320e-01,1.120612490922212601e-02,-2.643896341323852539e-01,-2.689429819583892822e-01,-2.225397527217864990e-01,5.122742652893066406e-01,1.481921318918466568e-02,-3.892268836498260498e-01,-6.209192797541618347e-02,-1.843678057193756104e-01,4.895187914371490479e-01,1.941571533679962158e-01,1.399529576301574707e-01,-1.579360067844390869e-01,2.855316400527954102e-01,-4.144781231880187988e-01,-6.784514188766479492e-01,1.908764541149139404e-01,-2.843726873397827148e-01,2.382230758666992188e-01,-4.986706376075744629e-01,5.431668832898139954e-02,2.842710614204406738e-01
7.894153594970703125e-01,7.909333705902099609e-01,4.290051162242889404e-01,7.883265018463134766e-01,-1.070956736803054810e-01,-7.668410539627075195e-01,-3.217455744743347168e-01,-3.989192247390747070e-01,2.495287545025348663e-02,-2.563694305717945099e-02,9.918365478515625000e-01,-3.665357828140258789e-02,-4.977158904075622559e-01,-2.170577198266983032e-01,-6.122264862060546875e-01,5.388671159744262695e-01,1.189500093460083008e+00,3.936520814895629883e-01,7.961933612823486328e-01,-8.320233821868896484e-01,-3.764966428279876709e-01,5.022056102752685547e-01,-1.009594351053237915e-01,-1.040308117866516113e+00,2.970531582832336426e-01,-2.463947385549545288e-01,2.441767603158950806e-01,-8.297659158706665039e-01,7.399028539657592773e-01,-3.171576261520385742e-01,-1.301662445068359375e+00,-1.100493669509887695e+00
6.172963604331016541e-02,1.911220252513885498e-01,6.979531608521938324e-03,6.080757826566696167e-02,-4.648510366678237915e-02,-5.310024023056030273e-01,-2.814665138721466064e-01,-1.389044970273971558e-01,1.589221805334091187e-01,-8.413042873144149780e-03,-8.733897656202316284e-02,-3.058376312255859375e-01,-5.190651398152112961e-03,2.638937830924987793e-01,2.145228907465934753e-02,1.884609311819076538e-01,-9.407406300306320190e-02,-5.603504925966262817e-02,-1.090755537152290344e-01,1.052537411451339722e-01,-9.702664613723754883e-01,3.409992754459381104e-01,1.952811181545257568e-01,-1.513641327619552612e-01,2.224305421113967896e-01,2.965944707393646240e-01,2.985243685543537140e-02,-2.733691409230232239e-02,1.240215227007865906e-01,-1.310383379459381104e-01,-9.751886874437332153e-02,-2.918806970119476318e-01
-2.689054906368255615e-01,-4.767880141735076904e-01,1.586081385612487793e-01,-4.540484547615051270e-01,3.704669773578643799e-01,4.443253576755523682e-01,1.923408359289169312e-01,4.097318351268768311e-01,-1.565614193677902222e-01,2.677330374717712402e-01,-1.292655616998672485e-01,-7.860127091407775879e-02,-8.925741910934448242e-02,-4.428673982620239258e-01,3.334811925888061523e-01,-1.044765785336494446e-01,-1.572820544242858887e-01,-1.424505412578582764e-01,1.536019444465637207e-01,2.006460428237915039e-01,1.953698843717575073e-01,1.350645255297422409e-02,8.004637062549591064e-02,1.306033786386251450e-02,-5.455790758132934570e-01,-3.071612417697906494e-01,3.185766339302062988e-01,-4.971136897802352905e-02,-3.896240293979644775e-01,1.387189477682113647e-01,3.769224584102630615e-01,5.142274498939514160e-01
7.196539640426635742e-01,4.093504846096038818e-01,1.816734075546264648e-01,2.394833117723464966e-01,-8.813703805208206177e-02,-7.973678112030029297e-01,-2.513830959796905518e-01,-2.149496972560882568e-01,1.671980619430541992e-01,2.522166669368743896e-01,8.159668445587158203e-01,1.459844708442687988e-01,2.614804506301879883e-01,3.746866807341575623e-02,-8.521038889884948730e-01,2.036986947059631348e-01,1.169643551111221313e-01,1.267719864845275879e-01,5.171098709106445312e-01,-2.116492986679077148e-01,-2.920424342155456543e-01,2.467890679836273193e-01,-4.793688654899597168e-01,-4.326003789901733398e-01,-6.466300040483474731e-02,1.664959490299224854e-01,4.265701281838119030e-04,-2.460344582796096802e-01,-1.608970016241073608e-01,-7.850290089845657349e-02,-9.499618411064147949e-01,-4.604880884289741516e-02
3.320680260658264160e-01,8.730881661176681519e-02,2.575845122337341309e-01,-2.180650271475315094e-02,2.642728686332702637e-01,1.097350940108299255e-02,1.137696057558059692e-01,-5.962839350104331970e-02,-1.592654883861541748e-01,4.964276254177093506e-01,5.192597955465316772e-02,1.462752223014831543e-01,2.213458865880966187e-01,-4.559988379478454590e-01,-3.016423806548118591e-02,3.667880892753601074e-01,3.058246672153472900e-01,-3.545425832271575928e-01,3.841544389724731445e-01,2.171976864337921143e-01,4.249297380447387695e-01,-3.696978688240051270e-01,-2.080446109175682068e-02,2.457828521728515625e-01,-2.853511869907379150e-01,-1.170319765806198120e-01,-1.032738462090492249e-01,7.113137841224670410e-02,3.480008840560913086e-01,4.817837104201316833e-02,3.462796509265899658e-01,5.994712114334106445e-01
-2.160862088203430176e-01,-1.002022624015808105e-01,2.495104074478149414e-01,1.980007886886596680e-01,7.692861557006835938e-02,1.209779381752014160e-01,-1.473379135131835938e-02,1.947357654571533203e-01,-1.408208608627319336e-01,-1.028202772140502930e-01,1.575660705566406250e-02,1.460877060890197754e-01,-1.225838661193847656e-01,7.464647293090820312e-03,7.075786590576171875e-03,-1.096070408821105957e-01,1.851676702499389648e-01,-9.232169389724731445e-02,2.080790996551513672e-01,1.264364719390869141e-01,6.676012277603149414e-02,5.916303396224975586e-02,1.481639742851257324e-01,-1.537759900093078613e-01,6.325602531433105469e-02,1.472343206405639648e-01,1.414882540702819824e-01,1.500997543334960938e-01,-1.366086006164550781e-01,1.678312420845031738e-01,1.730024218559265137e-01,1.087409853935241699e-01
-1.711978465318679810e-01,2.858635485172271729e-01,-1.210696250200271606e-01,-3.833777606487274170e-01,1.520761400461196899e-01,3.676958382129669189e-01,4.292788356542587280e-02,-9.193979948759078979e-02,3.317953348159790039e-01,6.241884082555770874e-02,-3.190044686198234558e-02,7.923807948827743530e-02,1.958665698766708374e-01,-3.139257133007049561e-01,3.130167424678802490e-01,-1.818635165691375732e-01,1.713479608297348022e-01,1.586112231016159058e-01,1.044387891888618469e-01,-7.726439088582992554e-02,5.237839743494987488e-02,2.604796290397644043e-01,4.601705670356750488e-01,1.197778135538101196e-01,2.099296823143959045e-02,3.655707836151123047e-02,2.025902420282363892e-01,-1.814645528793334961e-02,-4.570441246032714844e-01,-1.497903168201446533e-01,-1.027754694223403931e-01,2.678613364696502686e-01
-4.834308624267578125e-01,4.169438481330871582e-01,1.932545751333236694e-01,-8.913839608430862427e-02,7.880429923534393311e-02,-5.513852089643478394e-02,3.429371118545532227e-01,9.921684116125106812e-02,-1.125497743487358093e-01,-3.912239670753479004e-01,-1.942512691020965576e-01,6.547265499830245972e-02,1.173273995518684387e-01,2.125747352838516235e-01,1.792957782745361328e-01,-3.332588374614715576e-01,2.618875727057456970e-02,5.197832584381103516e-01,-3.374445140361785889e-01,-1.237657107412815094e-02,4.556874558329582214e-02,4.201683104038238525e-01,2.602404057979583740e-01,-1.023762226104736328e-01,2.356451451778411865e-01,3.421072363853454590e-01,-2.549329400062561035e-01,3.108141422271728516e-01,2.270762324333190918e-01,4.451495409011840820e-02,-7.141797989606857300e-02,-8.273554593324661255e-02
-4.225155711174011230e-01,3.534121513366699219e-01,4.505423307418823242e-01,2.544285655021667480e-01,2.667039632797241211e-01,2.937780320644378662e-01,-1.337875872850418091e-01,1.872047632932662964e-01,4.385529458522796631e-02,2.127795368432998657e-01,1.577187180519104004e-01,-1.085493862628936768e-01,-3.118593394756317139e-01,-1.958996355533599854e-01,-7.537661492824554443e-02,-1.903975158929824829e-01,4.662981629371643066e-02,2.562304735183715820e-01,-2.569731697440147400e-02,5.138355493545532227e-02,2.323260158300399780e-01,1.277147084474563599e-01,1.199574694037437439e-01,2.460871338844299316e-01,-1.594249904155731201e-01,-2.985121011734008789e-01,1.093984022736549377e-01,4.738658070564270020e-01,-8.879596740007400513e-02,-4.321454167366027832e-01,9.087653458118438721e-02,2.262274622917175293e-01
-1.013846769928932190e-01,-2.398365139961242676e-01,-5.910817161202430725e-02,-3.809552639722824097e-02,-3.095884919166564941e-01,3.991293907165527344e-01,-1.357688307762145996e-01,1.517129093408584595e-01,8.844055980443954468e-02,1.757689714431762695e-01,3.183674216270446777e-01,-2.412887215614318848e-01,1.049095243215560913e-01,-1.474879086017608643e-01,2.960097193717956543e-01,-2.551745474338531494e-01,4.103401899337768555e-01,-4.861078411340713501e-02,2.465333789587020874e-01,5.433409288525581360e-02,2.256750166416168213e-01,9.581975638866424561e-02,3.263235092163085938e-01,1.276305913925170898e-01,3.172300457954406738e-01,-3.862361609935760498e-01,5.976876616477966309e-02,-6.829355359077453613e-01,4.326624274253845215e-01,2.282046228647232056e-01,-3.059039637446403503e-02,1.714668273925781250e-01
