8.912949822843074799e-03,2.465161681175231934e-01,-1.257260739803314209e-01,-2.526811957359313965e-01,1.834745109081268311e-01,-7.190132886171340942e-02,-1.460522115230560303e-01,3.957448303699493408e-01,4.631718248128890991e-02,1.805969327688217163e-01,6.372956186532974243e-02,8.848804980516433716e-03,1.048047654330730438e-02,1.971134170889854431e-02,-4.704695940017700195e-01,-3.154849112033843994e-01,1.450686305761337280e-01,3.586366474628448486e-01,-5.827314034104347229e-02,-2.042505890130996704e-01,2.951039373874664307e-01,-1.301744431257247925e-01,-3.512027263641357422e-01,-2.176422774791717529e-01,-7.033762931823730469e-01,2.936665900051593781e-02,-2.184917777776718140e-01,-7.175868749618530273e-02,-2.722824811935424805e-01,-1.205438300967216492e-01,-1.267476677894592285e-01,-6.919058412313461304e-02
-1.506595611572265625e-01,-3.000535070896148682e-01,2.610618174076080322e-01,2.704968452453613281e-01,-1.777590215206146240e-01,4.057472348213195801e-01,2.318774536252021790e-02,-3.280837833881378174e-01,1.150179803371429443e-01,-1.082182079553604126e-01,3.476831614971160889e-01,-2.027570754289627075e-01,-5.455155298113822937e-02,1.673479080200195312e-01,2.643095254898071289e-01,2.398955076932907104e-01,6.405445933341979980e-02,5.631968379020690918e-02,-2.176128476858139038e-01,4.398416262120008469e-03,1.242704987525939941e-01,-1.962348371744155884e-01,2.014370411634445190e-01,2.085403352975845337e-01,3.752946257591247559e-01,1.496310234069824219e-01,-1.156087294220924377e-01,1.355385631322860718e-01,1.328967958688735962e-01,6.645819544792175293e-02,-2.825149893760681152e-01,5.388559103012084961e-01
-2.103738486766815186e-01,2.902335822582244873e-01,3.729294240474700928e-01,-6.828776001930236816e-02,8.481226861476898193e-02,2.005667686462402344e-01,-1.919751167297363281e-01,3.481119871139526367e-01,-2.781425118446350098e-01,3.524526953697204590e-01,1.845831573009490967e-01,4.635803773999214172e-02,6.315846927464008331e-03,5.227223038673400879e-03,-1.123856902122497559e-01,2.930850349366664886e-02,2.416943758726119995e-01,2.980149090290069580e-01,-1.795905176550149918e-03,3.610970973968505859e-01,-8.607562631368637085e-02,-2.323987632989883423e-01,1.017731726169586182e-01,-1.592998206615447998e-02,-1.794147118926048279e-02,-2.387280911207199097e-01,2.424868047237396240e-01,-3.892904147505760193e-02,-1.054064929485321045e-01,5.075031518936157227e-02,-3.273297548294067383e-01,-1.104501336812973022e-01
-1.605352759361267090e-01,3.568625450134277344e-02,2.233915776014328003e-01,7.673924416303634644e-02,-2.566304802894592285e-01,-6.356432288885116577e-02,9.506120346486568451e-03,3.688082098960876465e-01,-1.527201384305953979e-02,-5.876391381025314331e-02,-5.713443737477064133e-03,2.686883807182312012e-01,-8.386830240488052368e-02,-1.944369822740554810e-01,-1.637711077928543091e-01,3.262861445546150208e-02,2.428929209709167480e-01,-1.928602904081344604e-01,-2.577713727951049805e-01,1.983660832047462463e-02,2.219439148902893066e-01,-7.119558751583099365e-02,3.172484785318374634e-02,-8.928739279508590698e-02,4.761815443634986877e-02,1.329377293586730957e-01,2.566221654415130615e-01,5.658109113574028015e-02,2.125616818666458130e-01,-3.091631084680557251e-02,-3.164385557174682617e-01,-1.201157048344612122e-01
-1.743599027395248413e-01,4.307703077793121338e-01,1.660129278898239136e-01,-2.508593499660491943e-01,-2.353798449039459229e-01,4.587283432483673096e-01,-4.327972233295440674e-01,-5.275877937674522400e-02,-2.503142654895782471e-01,2.149392366409301758e-01,7.786020636558532715e-02,3.071460723876953125e-01,-1.407441496849060059e-01,-1.867134571075439453e-01,1.178203672170639038e-01,2.411202043294906616e-01,1.675168424844741821e-01,1.015375778079032898e-01,-1.131519004702568054e-01,2.666439414024353027e-01,2.622147500514984131e-01,1.668842881917953491e-01,-3.901728391647338867e-01,-1.065498962998390198e-01,-1.410455256700515747e-01,-1.941041648387908936e-01,3.402516245841979980e-01,5.700204521417617798e-02,8.344827592372894287e-02,2.267615199089050293e-01,-3.807646334171295166e-01,4.534855112433433533e-02
1.580503582954406738e-01,-8.338813483715057373e-02,-3.814147114753723145e-01,1.696287244558334351e-01,-3.447493910789489746e-01,-1.691733747720718384e-01,-4.142849519848823547e-02,-4.110387526452541351e-03,2.608953118324279785e-01,-1.582267135381698608e-01,-1.805268228054046631e-01,-2.772009074687957764e-01,8.016937971115112305e-02,-1.018564105033874512e-01,4.174283444881439209e-01,-2.530815899372100830e-01,-2.078253179788589478e-01,2.535961866378784180e-01,1.784072369337081909e-01,-7.548873871564865112e-02,9.670964628458023071e-02,5.572131834924221039e-03,2.420130930840969086e-02,2.483098953962326050e-02,9.485803544521331787e-02,-2.807739377021789551e-01,-1.259956210851669312e-01,1.427037082612514496e-02,1.935041099786758423e-01,-1.039905622601509094e-01,1.590346097946166992e-01,5.414045974612236023e-02
-2.577258050441741943e-01,-2.193922251462936401e-01,-4.580940306186676025e-02,-5.105730146169662476e-02,3.037063777446746826e-01,1.754567325115203857e-01,3.659391775727272034e-02,-2.338180691003799438e-01,-5.726207494735717773e-01,7.616054266691207886e-02,2.910121679306030273e-01,-9.442266076803207397e-02,-2.579777538776397705e-01,1.097854971885681152e-01,2.896378934383392334e-01,3.704641386866569519e-02,3.752413690090179443e-01,-2.089112997055053711e-01,-2.918276488780975342e-01,-3.728367388248443604e-01,1.355806738138198853e-01,-6.163250654935836792e-02,3.282500207424163818e-01,1.849732100963592529e-01,-3.737783432006835938e-01,-1.954426765441894531e-01,-2.853146195411682129e-01,-1.782589554786682129e-01,2.594552040100097656e-01,-6.016197055578231812e-02,-2.680827081203460693e-01,4.221595823764801025e-01
2.272342890501022339e-01,-1.171262934803962708e-01,-9.518261998891830444e-02,3.166332840919494629e-01,-1.853490918874740601e-01,2.297340929508209229e-01,1.151421442627906799e-01,2.588451504707336426e-01,3.750501275062561035e-01,1.669500321149826050e-01,-9.976194798946380615e-02,-1.598821207880973816e-02,-1.832847446203231812e-01,-3.205164521932601929e-02,-7.789816707372665405e-02,-5.318931341171264648e-01,1.101338118314743042e-01,1.172739192843437195e-01,-4.525996372103691101e-02,-2.714755237102508545e-01,-2.135550677776336670e-01,9.447751194238662720e-02,-2.131848484277725220e-01,-2.099155038595199585e-01,-2.956495881080627441e-01,1.669710315763950348e-02,1.596233248710632324e-01,3.375149965286254883e-01,2.741346657276153564e-01,3.797579929232597351e-02,2.606380730867385864e-02,-2.311988919973373413e-01
1.114253923296928406e-01,-4.467203319072723389e-01,2.027623057365417480e-01,2.920346558094024658e-01,-3.755649030208587646e-01,2.352476119995117188e-01,-3.371905088424682617e-01,-4.445124268531799316e-01,-2.172368951141834259e-02,-4.638797938823699951e-01,-5.258993059396743774e-02,2.885816097259521484e-01,1.107370182871818542e-01,-1.746966689825057983e-01,3.158693313598632812e-01,-3.718665242195129395e-02,2.965559959411621094e-01,1.343517601490020752e-01,7.476498186588287354e-02,1.688094884157180786e-01,4.126937687397003174e-01,1.006455942988395691e-01,1.329504549503326416e-01,1.944945752620697021e-01,-3.375738263130187988e-01,-8.252767473459243774e-02,4.590708017349243164e-02,-1.899218708276748657e-01,2.829473018646240234e-01,7.283174991607666016e-02,-3.743071854114532471e-02,4.676338434219360352e-01
9.854338318109512329e-02,1.933285146951675415e-01,4.626776650547981262e-02,-5.794962868094444275e-02,3.760151267051696777e-01,-2.682057619094848633e-01,-1.127354204654693604e-01,6.156010553240776062e-02,-1.277036778628826141e-02,2.943158447742462158e-01,-3.419997990131378174e-01,3.570587038993835449e-01,-1.318910717964172363e-01,2.961247041821479797e-02,-1.489254534244537354e-01,1.819257736206054688e-01,8.486885577440261841e-02,3.548722863197326660e-01,-5.956344306468963623e-02,2.048875540494918823e-01,-5.039552226662635803e-02,-1.040568724274635315e-01,4.223760068416595459e-01,-2.075281292200088501e-01,7.608199957758188248e-03,-3.160332888364791870e-02,2.476094663143157959e-01,-7.914067059755325317e-02,-8.825105428695678711e-02,-3.118761256337165833e-02,1.595779806375503540e-01,-1.539870500564575195e-01
-1.975994706153869629e-01,-1.305886660702526569e-03,-2.737311460077762604e-02,8.958362042903900146e-02,-1.223849132657051086e-01,-2.380788028240203857e-01,-1.418098714202642441e-02,1.215539500117301941e-02,-3.286880999803543091e-02,3.465598449110984802e-02,-1.708783507347106934e-01,-3.239800408482551575e-02,-4.924935102462768555e-02,-1.510099172592163086e-01,2.630798220634460449e-01,-2.724468708038330078e-02,6.472671777009963989e-02,-2.155354022979736328e-01,1.029363796114921570e-01,1.356772929430007935e-01,2.067182362079620361e-01,-1.418344676494598389e-01,-2.721290588378906250e-01,1.125394105911254883e-01,2.483700513839721680e-01,-3.074399381875991821e-02,1.341975331306457520e-01,2.088286168873310089e-02,-1.389185339212417603e-01,-1.482908874750137329e-01,-1.668589115142822266e-01,1.502918601036071777e-01
-1.516176462173461914e-01,-3.359313607215881348e-01,-7.875682413578033447e-02,2.845943570137023926e-01,-4.402740001678466797e-01,2.225931286811828613e-01,-1.094669476151466370e-01,-9.767423570156097412e-02,-1.354865729808807373e-01,-2.038188576698303223e-01,3.107385635375976562e-01,-1.438689976930618286e-01,-4.308628663420677185e-02,-6.053569912910461426e-02,-2.640324877575039864e-03,-4.317979514598846436e-01,-1.732960939407348633e-01,-8.091571331024169922e-01,-6.101296469569206238e-02,3.313373625278472900e-01,-1.773659326136112213e-02,-8.923322707414627075e-02,1.846989840269088745e-01,-4.542967304587364197e-03,-1.390216499567031860e-01,-1.936369538307189941e-01,-9.753890335559844971e-02,2.985636591911315918e-01,-5.267152097076177597e-03,1.419948339462280273e-01,-1.705026328563690186e-01,2.515152841806411743e-02
2.257433682680130005e-01,1.657223850488662720e-01,1.152408346533775330e-01,-1.197779327630996704e-01,-5.662185549736022949e-01,1.127967983484268188e-01,3.202484846115112305e-01,7.036144286394119263e-02,2.561518847942352295e-01,-1.285181641578674316e-01,1.844567060470581055e-01,-4.811235703527927399e-03,3.112115897238254547e-02,-2.208825945854187012e-01,-1.129044033586978912e-02,-2.524252235889434814e-01,-1.135865375399589539e-01,-2.874924838542938232e-01,2.111165374517440796e-01,-3.795525431632995605e-01,-1.607396267354488373e-02,3.133292868733406067e-02,6.883993744850158691e-02,-1.025500595569610596e-01,-1.026599705219268799e-01,-2.713531851768493652e-01,2.556703984737396240e-02,-1.977855116128921509e-01,2.364487200975418091e-01,3.030251562595367432e-01,-2.238040268421173096e-01,-7.873512059450149536e-02
-1.107477322220802307e-01,-1.330965757369995117e-01,-2.544403448700904846e-02,2.801448702812194824e-01,7.092022895812988281e-02,-3.220019936561584473e-01,2.573128640651702881e-01,1.710089445114135742e-01,-6.407604366540908813e-02,3.656913936138153076e-01,-3.340941965579986572e-01,8.371208794414997101e-03,-1.531154513359069824e-01,-1.673220098018646240e-01,1.170132160186767578e-01,1.472965478897094727e-01,-3.231285512447357178e-01,-1.789415031671524048e-01,1.327882260084152222e-01,-5.829604268074035645e-01,7.023282814770936966e-04,-2.577638812363147736e-02,-2.652147412300109863e-02,1.912482269108295441e-02,-2.455723881721496582e-01,-1.280922889709472656e-01,-1.988040804862976074e-01,2.602745890617370605e-01,-9.745962917804718018e-02,-9.151986986398696899e-02,3.057832270860671997e-02,-1.108421608805656433e-01
-9.712696075439453125e-03,1.064130067825317383e-01,-2.112596333026885986e-01,-6.389258801937103271e-02,5.752456188201904297e-02,-1.284869462251663208e-01,-1.353127956390380859e-01,-2.367645502090454102e-02,-4.324683174490928650e-02,-1.319828033447265625e-01,2.502169609069824219e-01,-1.964852958917617798e-01,6.872117519378662109e-03,-1.515640616416931152e-01,1.152856424450874329e-01,-1.852150559425354004e-01,3.728704527020454407e-02,1.815598011016845703e-01,2.258451581001281738e-01,1.731690168380737305e-01,6.193369999527931213e-02,2.069377899169921875e-02,1.705093085765838623e-01,-2.851998805999755859e-02,-7.182097434997558594e-02,-2.075989842414855957e-01,1.355238854885101318e-01,-1.973074115812778473e-02,-7.582074403762817383e-02,-2.344348579645156860e-01,1.644840240478515625e-01,-2.212668508291244507e-01
-4.640002250671386719e-01,-1.510781943798065186e-01,-4.586193859577178955e-01,-1.742319166660308838e-01,6.690615415573120117e-02,-8.229671418666839600e-02,2.303549647331237793e-01,-1.873935014009475708e-02,2.270693629980087280e-01,1.142958626151084900e-01,-4.729008078575134277e-01,-4.165263772010803223e-01,-3.139436244964599609e-02,-1.182028800249099731e-01,1.711534559726715088e-01,-2.271243929862976074e-01,-2.905318439006805420e-01,7.074084877967834473e-02,1.342615038156509399e-01,3.894021511077880859e-01,-3.143521249294281006e-01,-1.508247703313827515e-01,-1.586169600486755371e-01,-1.384094357490539551e-01,-3.197494447231292725e-01,-2.667443454265594482e-01,1.738315075635910034e-01,2.593567073345184326e-01,-1.236351765692234039e-02,-6.018901988863945007e-02,1.024639308452606201e-01,-5.493738651275634766e-01
6.722821295261383057e-02,1.044252514839172363e-01,7.122214138507843018e-02,1.337851285934448242e-01,8.768849819898605347e-02,-3.182803988456726074e-01,4.935608059167861938e-02,-2.249630689620971680e-01,-1.750574111938476562e-01,1.975784599781036377e-01,-4.149291813373565674e-01,7.412216067314147949e-02,-2.515059411525726318e-01,-3.459761664271354675e-02,1.006115786731243134e-02,1.247804760932922363e-01,-1.407826542854309082e-01,-2.756052613258361816e-01,-2.774673700332641602e-01,1.160548105835914612e-01,1.504173222929239273e-02,6.939236819744110107e-02,3.118581473827362061e-01,1.963019669055938721e-01,1.805952489376068115e-01,-2.110510170459747314e-01,-1.305831819772720337e-01,4.088384807109832764e-01,2.442401647567749023e-02,5.029071494936943054e-02,1.643664985895156860e-01,-6.540714204311370850e-02
1.563054323196411133e-01,8.043373376131057739e-02,2.401662170886993408e-01,9.827419370412826538e-02,-1.958581358194351196e-01,-1.015110835433006287e-01,-3.228729963302612305e-01,1.003670170903205872e-01,-2.147652506828308105e-01,3.798170015215873718e-02,2.209225744009017944e-01,1.714976318180561066e-02,1.008803546428680420e-01,-1.798826009035110474e-01,4.968370869755744934e-02,1.097197383642196655e-01,2.426612973213195801e-01,-2.959512472152709961e-01,-3.676527142524719238e-01,-1.045745685696601868e-01,2.056036028079688549e-04,-1.689319759607315063e-01,1.932615339756011963e-01,-1.167868897318840027e-01,7.840161025524139404e-02,1.478189527988433838e-01,1.160959452390670776e-01,2.330248430371284485e-02,4.526364803314208984e-02,3.334127664566040039e-01,-6.499564647674560547e-01,2.861946523189544678e-01
2.494195550680160522e-01,-5.015249550342559814e-02,2.371645160019397736e-02,-4.758038744330406189e-02,-1.673792451620101929e-01,3.504689335823059082e-01,-5.218712091445922852e-01,1.955446153879165649e-01,5.699976682662963867e-01,-1.681979149580001831e-01,7.567824125289916992e-01,-3.839005827903747559e-01,4.931962490081787109e-02,-5.647337436676025391e-02,1.585543900728225708e-02,-2.489748299121856689e-01,2.073752880096435547e-02,9.068317711353302002e-02,6.906422972679138184e-01,3.709104284644126892e-02,-7.542800158262252808e-02,1.420308947563171387e-01,-4.155993163585662842e-01,-2.109140902757644653e-02,-3.500570356845855713e-01,-6.677602417767047882e-03,-4.775328040122985840e-01,-3.923831284046173096e-01,5.844158530235290527e-01,8.109784722328186035e-01,-1.033895015716552734e-01,-6.192280650138854980e-01
-2.676837518811225891e-02,-3.435614705085754395e-01,-1.433124244213104248e-01,1.264432370662689209e-01,2.251764573156833649e-02,-3.530259728431701660e-01,-4.191031455993652344e-01,-1.191195175051689148e-01,6.600114051252603531e-03,3.351617977023124695e-02,-2.203880697488784790e-01,2.460056990385055542e-01,-5.525434017181396484e-02,-1.771305650472640991e-01,2.460936754941940308e-01,2.727720141410827637e-01,1.080228462815284729e-01,8.338085561990737915e-02,-5.721309781074523926e-02,1.749907284975051880e-01,-3.790079429745674133e-02,-2.494079023599624634e-01,3.212460279464721680e-01,1.512559503316879272e-01,-3.578480705618858337e-02,-1.021650061011314392e-01,-2.545368373394012451e-01,2.562997341156005859e-01,-1.526793986558914185e-01,-2.204433679580688477e-01,5.996177718043327332e-02,2.218637168407440186e-01
-1.567631214857101440e-02,-5.292256474494934082e-01,1.812968254089355469e-01,-7.084758579730987549e-02,-5.328385829925537109e-01,1.913040876388549805e-01,2.073787450790405273e-01,3.836145699024200439e-01,2.382472157478332520e-01,-6.135084033012390137e-01,-1.172280982136726379e-01,-1.816358231008052826e-02,-2.412235140800476074e-01,7.623617071658372879e-03,1.002798303961753845e-01,-1.153800711035728455e-01,1.326377540826797485e-01,-1.939558088779449463e-01,2.862401306629180908e-01,2.797692120075225830e-01,1.981233060359954834e-01,-2.753416895866394043e-01,-2.190682664513587952e-02,-9.817116707563400269e-02,4.013148136436939240e-03,-1.094170957803726196e-01,3.680242598056793213e-01,-1.999863982200622559e-01,2.670345604419708252e-01,1.998454928398132324e-01,2.566140592098236084e-01,-2.118919193744659424e-01
6.615442037582397461e-02,-8.901921659708023071e-02,-2.442178428173065186e-01,-1.297258883714675903e-01,2.332817316055297852e-01,-8.982020616531372070e-02,-1.981488466262817383e-01,-1.953440755605697632e-01,9.652328491210937500e-02,-2.798704244196414948e-02,1.237380784004926682e-02,-9.698348492383956909e-02,1.719819903373718262e-01,2.113732099533081055e-01,7.893473654985427856e-02,9.746497869491577148e-02,-1.657807081937789917e-01,-1.593168377876281738e-01,-1.876160502433776855e-01,2.373345047235488892e-01,-1.109355464577674866e-01,6.824851036071777344e-02,9.378024190664291382e-02,-7.463055849075317383e-02,-1.061129570007324219e-01,3.815126419067382812e-02,2.094245851039886475e-01,-2.412117421627044678e-01,-9.088274091482162476e-02,-2.180050015449523926e-01,2.261400222778320312e-03,2.325463593006134033e-01
3.996472433209419250e-02,-8.997204899787902832e-02,-1.227887421846389771e-01,2.969744503498077393e-01,-1.868639290332794189e-01,-6.868460029363632202e-02,-9.640005975961685181e-02,-1.876363158226013184e-01,2.194966673851013184e-01,-8.029147237539291382e-02,1.286603603512048721e-02,-1.277278661727905273e-01,-2.301783263683319092e-01,-1.224904656410217285e-01,1.333702653646469116e-01,-2.977771759033203125e-01,-2.302015200257301331e-02,6.012906134128570557e-02,-2.728838622570037842e-01,-8.359201252460479736e-02,-3.444288857281208038e-03,-9.781076759099960327e-02,1.514103412628173828e-01,-2.669439315795898438e-01,-5.274235010147094727e-01,-8.843724429607391357e-02,2.545300424098968506e-01,2.551382184028625488e-01,-1.587677597999572754e-01,6.835438311100006104e-02,-5.512089468538761139e-03,2.097689062356948853e-01
-5.419921875000000000e-02,5.900348350405693054e-02,-9.797986596822738647e-02,-6.129130721092224121e-02,1.550009250640869141e-01,6.973528861999511719e-02,-2.522966861724853516e-01,4.170357435941696167e-02,1.033931896090507507e-01,-1.470685452222824097e-01,-9.675610926933586597e-04,-2.341587543487548828e-01,-1.000410318374633789e-01,-2.442914247512817383e-01,-2.364549320191144943e-03,-2.147848010063171387e-01,7.562430202960968018e-02,-1.939767301082611084e-01,-7.991275191307067871e-02,5.382769182324409485e-02,-4.601723700761795044e-02,2.301332205533981323e-01,-1.209703981876373291e-01,-9.833574295043945312e-03,-2.400143146514892578e-01,8.387506008148193359e-03,7.069849222898483276e-02,1.509173363447189331e-01,-4.994567018002271652e-03,2.238714136183261871e-03,8.483535051345825195e-02,1.874582171440124512e-01
1.560367941856384277e-01,4.410975277423858643e-01,-3.650415688753128052e-02,-3.201491832733154297e-01,4.766561388969421387e-01,-1.922267139889299870e-03,-3.463898003101348877e-01,-3.864374160766601562e-01,5.044243931770324707e-01,2.931135706603527069e-02,3.706701397895812988e-01,1.934529840946197510e-01,1.945292651653289795e-01,9.008634090423583984e-02,-1.940128207206726074e-01,1.705250144004821777e-02,-3.424794077873229980e-01,1.731441468000411987e-01,4.166377484798431396e-01,4.976041913032531738e-01,1.490236669778823853e-01,-2.032071948051452637e-01,-1.361389011144638062e-01,2.101988717913627625e-02,2.697081565856933594e-01,1.181732490658760071e-01,3.748423159122467041e-01,-1.648766547441482544e-01,9.792739897966384888e-02,2.213401487097144127e-03,-1.997027248144149780e-01,1.834035515785217285e-01
1.031381860375404358e-01,-6.257592886686325073e-02,1.905940324068069458e-01,-9.483230113983154297e-02,-1.480381488800048828e-01,2.623391151428222656e-01,-4.673098772764205933e-02,1.541757434606552124e-01,1.876795887947082520e-01,-5.607647299766540527e-01,-5.205423012375831604e-02,-4.843335598707199097e-02,-1.373956352472305298e-01,2.057758569717407227e-01,5.439415946602821350e-02,-5.441198945045471191e-01,-1.130300462245941162e-01,-1.685111522674560547e-01,6.097124144434928894e-02,1.687774658203125000e-01,1.927513480186462402e-01,1.416273415088653564e-01,1.200457336381077766e-03,-1.850315034389495850e-01,3.068940341472625732e-01,-1.508235931396484375e-01,5.776767730712890625e-01,6.515782326459884644e-02,2.968740761280059814e-01,-4.754909500479698181e-02,-3.490262925624847412e-01,1.940970420837402344e-01
3.690037131309509277e-02,1.900361925363540649e-01,5.976932048797607422e-01,-1.309435963630676270e-01,3.853471279144287109e-01,-5.517190694808959961e-01,-4.173089861869812012e-01,-1.251673847436904907e-01,3.704673796892166138e-02,2.170479148626327515e-01,-3.017482459545135498e-01,2.978056073188781738e-01,4.616200923919677734e-03,1.495432406663894653e-01,-4.587679728865623474e-02,1.065309904515743256e-02,5.302940011024475098e-01,-3.727512061595916748e-02,2.148346155881881714e-01,-2.734239101409912109e-01,2.992174960672855377e-02,-2.535338997840881348e-01,4.383515715599060059e-01,-1.582439988851547241e-01,5.164721608161926270e-01,-1.331198066473007202e-01,4.023215174674987793e-02,-3.377043306827545166e-01,-4.707382321357727051e-01,2.161637097597122192e-01,-4.698891937732696533e-01,4.549997746944427490e-01
3.916476666927337646e-02,-3.219103515148162842e-01,1.890433132648468018e-01,9.966581314802169800e-02,-2.590033710002899170e-01,-1.106694787740707397e-01,-3.192130029201507568e-01,3.137692511081695557e-01,1.606161333620548248e-02,-2.252654880285263062e-01,-1.088224425911903381e-01,9.432619065046310425e-02,1.552636269479990005e-03,-3.398004919290542603e-02,-1.747723817825317383e-01,1.897251792252063751e-02,-1.272189915180206299e-01,2.285065054893493652e-01,-2.542093694210052490e-01,6.427641212940216064e-02,7.705822587013244629e-02,1.422029584646224976e-01,3.961507230997085571e-02,4.131786525249481201e-02,1.917743980884552002e-01,-2.816012799739837646e-01,1.414304375648498535e-01,1.666534543037414551e-01,-2.112703863531351089e-03,3.044952452182769775e-01,-3.553439304232597351e-02,4.602292180061340332e-02
-3.281068205833435059e-01,-1.696298867464065552e-01,-5.338774621486663818e-02,1.850868910551071167e-01,-1.326501965522766113e-01,3.648094087839126587e-02,5.837275832891464233e-02,-4.853396862745285034e-02,-8.430226147174835205e-02,1.941168904304504395e-01,-5.277760624885559082e-01,3.867117688059806824e-03,-4.070517793297767639e-02,1.218225993216037750e-02,7.144206017255783081e-02,5.925133079290390015e-02,-1.616137474775314331e-01,-1.450427225790917873e-03,-2.868084311485290527e-01,-4.997769370675086975e-02,1.855944693088531494e-01,-2.681359052658081055e-01,3.537046015262603760e-01,-9.304232895374298096e-02,-2.586352527141571045e-01,-2.577729225158691406e-01,-1.936629712581634521e-01,-5.150084197521209717e-02,-1.002933308482170105e-01,-2.466333284974098206e-02,8.148455992341041565e-03,-1.125556752085685730e-01
2.704247236251831055e-01,-6.045237183570861816e-01,9.541162103414535522e-02,4.067357480525970459e-01,-7.240271568298339844e-01,6.449667364358901978e-02,2.022725790739059448e-01,5.479618906974792480e-02,-8.912415802478790283e-02,-4.160174429416656494e-01,2.304616272449493408e-01,-1.444954723119735718e-01,-1.988336145877838135e-01,-8.109158277511596680e-02,1.046996042132377625e-01,1.577707827091217041e-01,-2.814829647541046143e-01,-3.896446824073791504e-01,1.389363706111907959e-01,-2.448001503944396973e-02,-1.928355842828750610e-01,-8.340584486722946167e-02,-1.624793857336044312e-01,-2.229701280593872070e-01,-3.750081062316894531e-01,-1.233731061220169067e-01,-3.111018836498260498e-01,2.403605878353118896e-01,1.186543777585029602e-01,6.875677406787872314e-02,-2.141329199075698853e-01,2.257279902696609497e-01
-1.276939958333969116e-01,-2.434272915124893188e-01,2.429502159357070923e-01,4.142189621925354004e-01,4.288840889930725098e-01,-1.608484089374542236e-01,-4.962930977344512939e-01,-3.110344111919403076e-01,-1.038404181599617004e-01,1.353188008069992065e-01,-2.278681099414825439e-01,-1.815684288740158081e-01,1.618129014968872070e-02,-2.255785167217254639e-01,1.161228120326995850e-01,-6.438186764717102051e-02,3.851567581295967102e-02,-5.739113688468933105e-02,1.578201353549957275e-01,-3.460096716880798340e-01,2.520093619823455811e-01,-1.594489365816116333e-01,3.209246098995208740e-01,-2.695094943046569824e-01,3.577109193429350853e-03,-7.318450137972831726e-03,2.811020612716674805e-01,2.130144536495208740e-01,-1.303324699401855469e-01,3.189214318990707397e-02,-1.819369196891784668e-02,4.864286482334136963e-01
1.668441342189908028e-03,-7.761958241462707520e-02,-1.359660476446151733e-01,-3.782679885625839233e-02,2.518404461443424225e-02,-4.874182119965553284e-02,-6.865207850933074951e-02,2.285955101251602173e-01,1.676550060510635376e-01,3.465786278247833252e-01,-2.644893527030944824e-01,2.773239314556121826e-01,-1.015390902757644653e-01,-6.220157071948051453e-02,-4.549451638013124466e-03,-1.982529610395431519e-01,-1.212214585393667221e-02,1.309751868247985840e-01,-1.568510830402374268e-01,-4.136317968368530273e-02,-1.598651856184005737e-01,-2.074324190616607666e-01,-1.345587894320487976e-02,1.072980090975761414e-02,-7.483587414026260376e-02,-1.852471530437469482e-01,-1.588957905769348145e-01,1.981945484876632690e-01,-2.903465926647186279e-01,-1.281395927071571350e-02,1.648806184530258179e-01,1.582024544477462769e-01
4.113958403468132019e-02,-5.168848671019077301e-03,-1.248035952448844910e-02,2.021633833646774292e-01,-2.069316804409027100e-01,3.840306401252746582e-01,-1.294971723109483719e-02,-3.245209157466888428e-01,2.920465767383575439e-01,2.560940384864807129e-01,-8.306702226400375366e-02,3.057626485824584961e-01,-1.042732670903205872e-01,1.033372282981872559e-01,-1.359079033136367798e-01,-1.013491451740264893e-01,-9.821423888206481934e-02,1.433066427707672119e-01,2.417673617601394653e-01,3.496332764625549316e-01,-1.870110630989074707e-01,1.727224439382553101e-01,7.642391324043273926e-02,-1.044191494584083557e-01,-1.388146877288818359e-01,1.372179239988327026e-01,-1.140995994210243225e-01,1.990333348512649536e-01,-1.043362170457839966e-01,6.026249378919601440e-02,-1.964954584836959839e-01,9.624145179986953735e-02
-1.659724563360214233e-01,-2.318362593650817871e-01,2.949658334255218506e-01,9.461841732263565063e-02,6.230732202529907227e-01,6.709350943565368652e-01,1.886988729238510132e-01,5.929285287857055664e-02,-5.733297392725944519e-02,-1.270111441612243652e+00,1.215360641479492188e+00,-5.524904727935791016e-01,1.598564088344573975e-01,-4.128080606460571289e-02,5.057846382260322571e-02,-6.452695280313491821e-02,-1.158160939812660217e-01,-1.251373529434204102e+00,3.558599650859832764e-01,2.197619900107383728e-02,6.123626828193664551e-01,-2.309413850307464600e-01,-3.096341192722320557e-01,8.997706323862075806e-02,8.117364645004272461e-01,1.836037635803222656e-02,6.065809130668640137e-01,-5.412166118621826172e-01,7.630032300949096680e-01,-2.699209749698638916e-01,-4.175052344799041748e-01,-6.660319864749908447e-03
1.525772549211978912e-02,1.815654635429382324e-01,-1.562744081020355225e-01,5.212568491697311401e-02,1.276924312114715576e-01,3.322766721248626709e-01,-6.329787522554397583e-02,3.791724145412445068e-01,2.431771159172058105e-01,-3.713288605213165283e-01,3.088175952434539795e-01,-1.156548932194709778e-01,1.675218790769577026e-01,8.797359466552734375e-02,4.422201961278915405e-02,-9.245399385690689087e-02,-4.854160547256469727e-01,-2.012064605951309204e-01,-1.825406253337860107e-01,-3.872724249958992004e-02,-2.447652369737625122e-01,3.177607804536819458e-02,-2.602668702602386475e-01,-1.907655000686645508e-01,-6.811875104904174805e-02,-2.282681167125701904e-01,2.524358630180358887e-01,1.352487802505493164e-01,4.764462411403656006e-01,3.794048726558685303e-01,-1.467532217502593994e-01,-4.919687211513519287e-01
-4.960936307907104492e-02,1.789389848709106445e-01,-1.655648946762084961e-01,-1.923120021820068359e-02,1.276927590370178223e-01,2.083089947700500488e-01,-6.602936983108520508e-02,-2.353736758232116699e-01,-1.231803894042968750e-01,2.216494679450988770e-01,-1.890819072723388672e-01,2.236177325248718262e-01,4.812246561050415039e-02,-1.647213697433471680e-01,2.438426017761230469e-04,1.547818779945373535e-01,-1.184945702552795410e-01,3.983563184738159180e-02,-7.281148433685302734e-02,1.421356201171875000e-02,1.263452768325805664e-01,1.560438871383666992e-01,2.137801647186279297e-01,-1.837872266769409180e-01,-7.002270221710205078e-02,4.005807638168334961e-02,8.020448684692382812e-02,-1.221521496772766113e-01,-1.547312140464782715e-01,5.528157949447631836e-02,2.172183394432067871e-01,-5.924487113952636719e-02
-2.166704237461090088e-01,4.067624732851982117e-02,-3.365783691406250000e-01,2.156763672828674316e-01,-8.804640918970108032e-02,-8.654511719942092896e-02,-1.193217188119888306e-01,-1.582339555025100708e-01,-4.060066491365432739e-02,2.382371276617050171e-01,-1.395353078842163086e-01,-1.753399968147277832e-01,6.543610244989395142e-02,-2.029617577791213989e-01,1.907249242067337036e-01,5.247610155493021011e-03,-2.469806745648384094e-02,-2.751914858818054199e-01,-1.028570979833602905e-01,-6.417397875338792801e-03,-6.184056773781776428e-02,-8.964236825704574585e-02,4.121898710727691650e-01,-1.589684486389160156e-01,-5.710712671279907227e-01,-2.736276388168334961e-01,1.332180351018905640e-01,4.680847525596618652e-01,1.548645794391632080e-01,-1.469038277864456177e-01,-5.345721170306205750e-02,6.241097673773765564e-02
-1.967953890562057495e-01,-1.265401542186737061e-01,-1.279104351997375488e-01,2.752612233161926270e-01,-1.403126269578933716e-01,1.294864434748888016e-02,-9.748411923646926880e-02,2.640783190727233887e-01,2.964779436588287354e-01,1.253812313079833984e-01,1.413636952638626099e-01,-9.825641661882400513e-02,-2.011613547801971436e-01,-2.308617234230041504e-01,2.722894847393035889e-01,1.597857624292373657e-01,-8.092514276504516602e-01,8.198805153369903564e-02,3.093976378440856934e-01,1.093432232737541199e-01,1.007763817906379700e-01,1.634296327829360962e-01,-1.606509834527969360e-01,-1.211094632744789124e-01,4.850412160158157349e-02,-1.500592529773712158e-01,4.399716854095458984e-02,2.431382425129413605e-03,-3.779771551489830017e-02,-1.436423808336257935e-01,-3.216078579425811768e-01,-5.093368887901306152e-01
-1.439372450113296509e-01,1.335262954235076904e-01,3.151242434978485107e-01,-2.368012368679046631e-01,-6.395686883479356766e-03,1.944828927516937256e-01,-2.335599362850189209e-01,-2.803552746772766113e-01,5.089499950408935547e-01,3.060676157474517822e-01,-1.891886144876480103e-01,5.732836723327636719e-01,1.316922307014465332e-01,6.423950195312500000e-03,-5.986152887344360352e-01,-2.645740211009979248e-01,2.635948061943054199e-01,-3.713258206844329834e-01,3.327441513538360596e-01,-2.253213524818420410e-01,1.292538195848464966e-01,-5.366465076804161072e-02,3.750888109207153320e-01,-1.257088333368301392e-01,-1.473899334669113159e-01,5.301588773727416992e-02,2.345575541257858276e-01,-4.525397121906280518e-01,-7.264481186866760254e-01,-5.560400336980819702e-02,-1.514144539833068848e-01,7.773236185312271118e-02
-1.958557218313217163e-01,1.978227645158767700e-01,-1.447046697139739990e-01,9.639002382755279541e-02,-4.022422432899475098e-01,-1.439132541418075562e-01,8.185947686433792114e-02,-1.749476492404937744e-01,8.053246885538101196e-02,-1.507837921380996704e-01,1.950075924396514893e-01,-1.289062500000000000e-01,-9.609337896108627319e-03,-7.532763481140136719e-02,-8.434547483921051025e-02,-2.195346802473068237e-01,-2.028307318687438965e-01,-3.765006661415100098e-01,2.839091122150421143e-01,2.854875475168228149e-02,2.125902324914932251e-01,-2.577103972434997559e-01,1.816617883741855621e-02,-1.243975311517715454e-01,8.090689778327941895e-02,1.363526582717895508e-01,3.538816049695014954e-02,2.215012609958648682e-01,3.115085065364837646e-01,-8.096502721309661865e-02,2.399302124977111816e-01,2.130134701728820801e-01
-1.306165456771850586e-01,3.940099477767944336e-01,-1.464910656213760376e-01,2.048777788877487183e-02,4.703041017055511475e-01,-4.872325360774993896e-01,-5.998432636260986328e-02,-2.635950744152069092e-01,2.722613215446472168e-01,6.684751808643341064e-02,-1.628935933113098145e-01,1.929840445518493652e-01,1.560069918632507324e-01,-1.949424147605895996e-01,1.152922362089157104e-01,3.071077354252338409e-02,-3.372959792613983154e-01,3.501037955284118652e-01,-3.475219383835792542e-02,3.576014935970306396e-01,-2.560687959194183350e-01,-6.061442196369171143e-02,1.732943207025527954e-01,-2.266363799571990967e-01,2.387711852788925171e-01,-5.635533854365348816e-02,-3.806627541780471802e-02,1.329445987939834595e-01,-5.328589677810668945e-01,2.315317243337631226e-01,3.263633549213409424e-01,-2.896159887313842773e-01
-2.321524545550346375e-03,1.303628534078598022e-01,-3.701994717121124268e-01,5.005611181259155273e-01,-7.091411948204040527e-02,-2.113713324069976807e-01,-4.421424493193626404e-02,-4.344754219055175781e-01,1.198186725378036499e-01,2.190903425216674805e-01,2.286902628839015961e-02,-3.816599398851394653e-02,8.429894223809242249e-04,-2.382007837295532227e-01,2.219341546297073364e-01,-1.757196336984634399e-01,-2.396567612886428833e-01,2.985425591468811035e-01,1.506584882736206055e-01,-5.190153792500495911e-02,-1.024906989187002182e-02,6.993848830461502075e-02,1.107722595334053040e-01,-1.939377933740615845e-01,-9.403325915336608887e-01,9.288479387760162354e-02,-1.711790412664413452e-01,3.704149425029754639e-01,4.321267455816268921e-02,-4.873127862811088562e-02,-9.575819969177246094e-02,-2.443530112504959106e-01
-8.180911093950271606e-02,2.847925126552581787e-01,1.839799731969833374e-01,-5.307189822196960449e-01,-2.830601334571838379e-01,-2.990575730800628662e-01,1.496698260307312012e-01,2.531865537166595459e-01,-1.316349655389785767e-01,-1.846323460340499878e-01,-2.642953693866729736e-01,4.130313992500305176e-01,-1.880511492490768433e-01,-2.461710572242736816e-01,-7.110351324081420898e-01,-3.413100540637969971e-02,5.693574547767639160e-01,-1.018531620502471924e-01,1.472416222095489502e-01,7.124956697225570679e-02,3.213355839252471924e-01,1.495537161827087402e-01,1.931314170360565186e-01,-1.686400920152664185e-01,-1.209327485412359238e-02,1.152003407478332520e-01,-1.210737004876136780e-01,-5.617860555648803711e-01,-1.001459062099456787e-01,-5.303678512573242188e-01,3.414869010448455811e-01,2.942281365394592285e-01
-7.675814628601074219e-02,3.768592700362205505e-02,2.409994602203369141e-02,2.476693689823150635e-01,-1.092673167586326599e-01,3.609329760074615479e-01,-1.334207952022552490e-01,-1.488630622625350952e-01,-3.689710795879364014e-01,2.332035303115844727e-01,5.163499712944030762e-02,6.177710369229316711e-02,-2.506322562694549561e-01,1.009413376450538635e-01,1.189422383904457092e-01,2.993583381175994873e-01,6.138140708208084106e-02,-3.038872182369232178e-01,-6.317182183265686035e-01,-9.506025910377502441e-02,3.433257043361663818e-01,1.419357955455780029e-01,-1.060043554753065109e-02,-6.379771977663040161e-02,-2.052105218172073364e-01,-2.519384920597076416e-01,1.127761825919151306e-01,-1.719719171524047852e-01,1.669085770845413208e-01,-1.505725681781768799e-01,1.239182725548744202e-01,1.593084633350372314e-01
2.032876461744308472e-01,-8.153800964355468750e-01,1.236632615327835083e-01,7.717313617467880249e-02,1.983176618814468384e-01,1.225779727101325989e-01,3.847191035747528076e-01,3.465776741504669189e-01,3.863668739795684814e-01,-5.934687852859497070e-01,7.367144227027893066e-01,-5.253136754035949707e-01,-2.646329998970031738e-02,1.773694157600402832e-01,1.248848661780357361e-01,5.488256216049194336e-01,-2.228473275899887085e-01,-3.824943304061889648e-01,4.375301301479339600e-01,-7.053151130676269531e-01,1.643271148204803467e-01,-2.570704519748687744e-01,-1.576372236013412476e-01,-2.609368264675140381e-01,-1.701991260051727295e-01,1.677263826131820679e-01,1.557361185550689697e-01,-2.419824600219726562e-01,4.308426380157470703e-01,-1.189291402697563171e-01,-3.258095309138298035e-02,-3.194760978221893311e-01
8.421145379543304443e-02,3.095185756683349609e-01,-2.814944088459014893e-01,7.618029415607452393e-02,-1.280554085969924927e-01,-4.452134296298027039e-02,2.653087377548217773e-01,3.329990804195404053e-01,3.456180691719055176e-01,-8.866159617900848389e-02,1.441711038351058960e-01,1.926323771476745605e-01,1.262774765491485596e-01,1.014976277947425842e-01,2.369806915521621704e-01,-1.748314052820205688e-01,-1.723260879516601562e-01,-2.999531924724578857e-01,-1.087223067879676819e-01,-5.561760067939758301e-01,-1.018551066517829895e-01,4.930666834115982056e-02,2.306056469678878784e-01,-7.518826425075531006e-02,-1.457705497741699219e-01,6.997880339622497559e-02,-2.453626841306686401e-01,2.191036790609359741e-01,2.739069610834121704e-02,-5.556454136967658997e-02,6.504034996032714844e-02,4.160312935709953308e-02
-1.730084121227264404e-01,2.985082566738128662e-01,1.982342749834060669e-01,-1.281420439481735229e-01,8.030971139669418335e-02,-2.014188915491104126e-01,-4.562869668006896973e-01,2.135967016220092773e-01,4.590543806552886963e-01,3.249454498291015625e-01,-2.485036291182041168e-02,2.072605192661285400e-01,-1.764844655990600586e-01,-1.841624081134796143e-01,-1.265412420034408569e-01,-5.643454790115356445e-01,2.033948004245758057e-01,3.968188762664794922e-01,-2.883517146110534668e-01,1.420138776302337646e-02,-1.906290948390960693e-01,1.890152245759963989e-01,-1.316057238727807999e-02,2.049031108617782593e-01,-2.048671841621398926e-01,1.413424909114837646e-01,3.448602259159088135e-01,-1.363991992548108101e-03,-2.526766061782836914e-01,2.470734864473342896e-01,-3.891878575086593628e-02,-4.609875380992889404e-02
5.325371772050857544e-02,1.756268590688705444e-01,6.371458619832992554e-02,-6.356031447649002075e-02,-1.154437437653541565e-01,2.221787422895431519e-01,3.435849547386169434e-01,1.670102477073669434e-01,-1.248724237084388733e-01,-4.744683206081390381e-01,-1.567063294351100922e-02,-1.148439943790435791e-03,-6.154957041144371033e-02,-2.524971365928649902e-01,1.125471666455268860e-01,3.394671678543090820e-01,-5.386715754866600037e-03,-8.498628139495849609e-01,8.014692366123199463e-02,-2.442509233951568604e-01,2.126887589693069458e-01,3.637368790805339813e-03,-2.782813310623168945e-01,-4.624728113412857056e-02,-3.212859928607940674e-01,-2.146099656820297241e-01,3.233296275138854980e-01,-1.390681415796279907e-01,3.368465900421142578e-01,2.157320529222488403e-01,-1.052056625485420227e-02,-1.535474658012390137e-01
-1.758112460374832153e-01,-7.178983185440301895e-03,1.182869225740432739e-01,2.481646239757537842e-01,-1.566141545772552490e-01,-4.438240453600883484e-02,1.175197213888168335e-01,-3.847736120223999023e-01,-3.612824678421020508e-01,1.164754703640937805e-01,2.206650078296661377e-01,2.115633338689804077e-01,-1.776944547891616821e-01,4.958386067301034927e-03,1.488675028085708618e-01,-3.116406798362731934e-01,3.629315793514251709e-01,2.632656507194042206e-02,-1.957906968891620636e-02,3.966857492923736572e-01,2.368437945842742920e-01,-1.927195489406585693e-01,1.274221688508987427e-01,-1.472395956516265869e-01,2.118428498506546021e-01,-4.852049425244331360e-02,3.332377672195434570e-01,-1.203660219907760620e-01,-2.175618857145309448e-01,2.681399583816528320e-01,1.315519213676452637e-02,-3.214583033695816994e-03
4.401689395308494568e-02,-3.246091604232788086e-01,2.573876678943634033e-01,1.851182579994201660e-01,-2.568525262176990509e-02,2.761689424514770508e-01,2.591438293457031250e-01,1.280909329652786255e-01,1.917118281126022339e-01,-3.938638269901275635e-01,2.721144855022430420e-01,-9.810634702444076538e-02,-2.655079402029514313e-02,-7.752133905887603760e-02,3.391980826854705811e-01,-3.525890111923217773e-01,8.180013857781887054e-03,-1.657495833933353424e-02,1.264330595731735229e-01,-2.381313443183898926e-01,-6.417852640151977539e-02,-2.304719090461730957e-01,1.908161193132400513e-01,-4.217494279146194458e-02,4.125325754284858704e-02,-1.055190116167068481e-01,-9.310056269168853760e-02,-1.472328230738639832e-02,4.703387990593910217e-02,7.360085844993591309e-02,4.650381952524185181e-02,3.330612555146217346e-02
-1.604914218187332153e-01,3.360409438610076904e-01,-6.493325345218181610e-03,-2.496091425418853760e-01,1.938562095165252686e-01,-1.142311319708824158e-01,-4.972158074378967285e-01,1.832212954759597778e-01,-3.144771456718444824e-01,1.157413795590400696e-01,-2.299237996339797974e-02,3.508307635784149170e-01,-7.859842479228973389e-02,-1.518678814172744751e-01,-2.569654956459999084e-02,1.188565865159034729e-01,2.370407730340957642e-01,1.391606479883193970e-01,-1.022637337446212769e-01,1.982625275850296021e-01,1.857611387968063354e-01,-2.408106327056884766e-01,-2.268720790743827820e-02,-1.627634167671203613e-01,1.509675383567810059e-01,7.552728801965713501e-02,3.811912238597869873e-02,-7.439911365509033203e-02,-2.022739052772521973e-01,6.504765152931213379e-02,1.734773367643356323e-01,-4.187527671456336975e-02
2.985334396362304688e-02,2.113815993070602417e-01,1.544826664030551910e-02,2.405281066894531250e-01,-1.886969208717346191e-01,-1.772591769695281982e-01,-2.858799695968627930e-02,-1.826854795217514038e-01,-2.033743262290954590e-02,-9.567636251449584961e-02,7.830080389976501465e-02,1.186944469809532166e-01,-1.215557456016540527e-01,-1.763980388641357422e-01,-1.078306883573532104e-01,-3.737926483154296875e-03,4.269894585013389587e-02,-1.627066135406494141e-01,4.959423094987869263e-03,2.616918385028839111e-01,-1.971545517444610596e-01,1.324210762977600098e-01,1.445098370313644409e-01,2.317240834236145020e-01,1.958775520324707031e-02,-2.427667379379272461e-02,1.772913932800292969e-01,-9.068089723587036133e-02,-2.124545127153396606e-01,-7.234236598014831543e-02,-1.491036415100097656e-01,-2.047890573740005493e-01
-1.788388378918170929e-02,-1.104049608111381531e-01,2.148157209157943726e-01,-3.994149863719940186e-01,9.696705639362335205e-02,1.956375539302825928e-01,4.468335211277008057e-02,2.636556029319763184e-01,1.202444881200790405e-01,-2.960551977157592773e-01,-3.807321190834045410e-01,6.774671375751495361e-02,5.022901296615600586e-02,-9.482264518737792969e-03,-1.361487954854965210e-01,4.495384097099304199e-01,-3.228880837559700012e-02,-3.628548979759216309e-01,1.693086931481957436e-03,-1.721069365739822388e-01,2.660342454910278320e-01,6.529398728162050247e-03,7.491281628608703613e-02,-1.917105019092559814e-01,-6.996417045593261719e-01,-1.270835995674133301e-01,-8.486121147871017456e-02,-2.723629474639892578e-01,2.619150876998901367e-01,-2.419655472040176392e-01,-1.200589612126350403e-01,6.348945200443267822e-02
1.687347888946533203e-01,-1.260655224323272705e-01,-3.190821781754493713e-02,2.979761734604835510e-02,-1.311368942260742188e-01,-7.969424873590469360e-02,1.833285018801689148e-02,-2.151834368705749512e-01,-1.476788967847824097e-01,-6.460342556238174438e-02,-1.225313022732734680e-01,2.128471881151199341e-01,-9.720689058303833008e-02,-8.381295204162597656e-02,3.603108599781990051e-02,1.785454154014587402e-01,2.131074219942092896e-01,8.007204532623291016e-02,1.166733205318450928e-01,-1.673152903094887733e-03,2.095226049423217773e-01,5.711275618523359299e-03,1.072927787899971008e-01,1.234305500984191895e-01,3.221988677978515625e-02,-2.063059806823730469e-02,-2.220126390457153320e-01,-2.201525568962097168e-01,5.570305883884429932e-02,1.225064694881439209e-01,-6.187134981155395508e-02,-6.355726718902587891e-02
-1.817613989114761353e-01,-6.395297050476074219e-01,3.768296837806701660e-01,1.065369471907615662e-01,-2.279705405235290527e-01,3.355685174465179443e-01,-3.148854076862335205e-01,-7.583754509687423706e-02,4.733363911509513855e-02,-3.255169689655303955e-01,4.673509299755096436e-01,-9.928526729345321655e-02,9.048531204462051392e-02,-1.316283941268920898e-01,2.355251312255859375e-01,-3.250267207622528076e-01,-7.448823750019073486e-02,-2.129895687103271484e-01,3.295792937278747559e-01,-4.800998866558074951e-01,2.026332914829254150e-01,5.328487604856491089e-02,-1.467774957418441772e-01,1.885595023632049561e-01,-2.883613705635070801e-01,1.095578074455261230e-01,-1.643540263175964355e-01,-2.750093042850494385e-01,2.566876709461212158e-01,-1.373803466558456421e-01,1.792460680007934570e-01,3.969588577747344971e-01
4.839986562728881836e-02,2.156454324722290039e-01,2.187535762786865234e-01,-1.177066564559936523e-01,-1.988030672073364258e-01,1.297875046730041504e-01,2.070063948631286621e-01,-1.582805514335632324e-01,1.345897912979125977e-01,-1.331871151924133301e-01,-2.039940357208251953e-01,-8.615469932556152344e-02,2.346020936965942383e-02,-3.344666957855224609e-02,-1.384915113449096680e-01,1.901274919509887695e-01,-2.382187247276306152e-01,4.542762041091918945e-02,1.569676995277404785e-01,-3.144615888595581055e-02,2.979743480682373047e-02,1.462224125862121582e-01,1.322727799415588379e-01,-1.228277087211608887e-01,2.459070682525634766e-01,1.248056888580322266e-01,-2.605879306793212891e-02,2.806663513183593750e-02,7.088518142700195312e-02,-4.715865850448608398e-02,-5.412757396697998047e-03,8.246958255767822266e-03
-1.349175125360488892e-01,2.932677567005157471e-01,1.029745116829872131e-01,1.107313409447669983e-01,-3.317368924617767334e-01,2.636305689811706543e-01,-6.017187610268592834e-02,3.145631253719329834e-01,6.202930808067321777e-01,-6.846701260656118393e-03,4.204574525356292725e-01,2.807669937610626221e-01,-1.413514763116836548e-01,1.157182455062866211e-02,3.058229386806488037e-01,-3.365727365016937256e-01,1.792737394571304321e-01,4.581958055496215820e-01,4.043541848659515381e-01,1.540906727313995361e-01,1.319149285554885864e-01,-6.305080652236938477e-02,-1.410650163888931274e-01,-1.333200931549072266e-01,-4.376218318939208984e-01,-7.055463641881942749e-02,3.077261745929718018e-01,-6.443121284246444702e-02,2.765280604362487793e-01,1.010129004716873169e-01,1.821238100528717041e-01,-6.016011238098144531e-01
-1.607903242111206055e-01,9.270556271076202393e-02,-8.560926467180252075e-02,1.203358918428421021e-02,-3.541826009750366211e-01,8.844888955354690552e-02,-5.169531106948852539e-01,1.303348876535892487e-02,1.685999035835266113e-01,1.299337893724441528e-01,-8.254733681678771973e-02,2.681455612182617188e-01,1.133458688855171204e-01,-2.777621448040008545e-01,2.087903916835784912e-01,-5.959163904190063477e-01,1.695454120635986328e-01,-2.734968438744544983e-02,1.798901259899139404e-01,-1.046562120318412781e-01,2.937904000282287598e-01,-3.829938126727938652e-03,3.419179320335388184e-01,1.052023693919181824e-01,3.112528938800096512e-04,1.052586510777473450e-01,-2.783089131116867065e-02,6.104546785354614258e-02,2.233808636665344238e-01,6.685312837362289429e-02,1.037289947271347046e-01,7.345231622457504272e-02
1.409454643726348877e-01,-2.002181299030780792e-02,2.623474895954132080e-01,2.364935427904129028e-01,2.518288493156433105e-01,-1.340051293373107910e-01,8.136514574289321899e-03,1.180185005068778992e-02,-3.784043490886688232e-01,3.815461695194244385e-01,-1.627034544944763184e-01,-4.673505201935768127e-02,-2.202473729848861694e-01,-1.367807835340499878e-01,1.766503900289535522e-01,3.429651856422424316e-01,1.197725236415863037e-01,8.164460957050323486e-02,-1.192356869578361511e-01,2.483987808227539062e-01,-4.914393648505210876e-03,-5.582536011934280396e-02,-6.204443797469139099e-02,1.342146396636962891e-01,-1.478128731250762939e-01,-1.920774132013320923e-01,3.857040405273437500e-01,-1.509325653314590454e-01,-1.085711568593978882e-01,-2.681230194866657257e-02,-5.152798891067504883e-01,1.435324698686599731e-01
2.648455798625946045e-01,3.116997703909873962e-02,1.788823604583740234e-01,1.486155390739440918e-01,-5.073294043540954590e-01,2.126343548297882080e-02,-4.536247253417968750e-01,-9.565286338329315186e-02,-2.044420540332794189e-01,-3.808850049972534180e-02,2.110723257064819336e-01,6.595484912395477295e-02,-1.949496008455753326e-02,1.676192730665206909e-01,6.599351763725280762e-02,-4.869017302989959717e-01,2.332806438207626343e-01,1.289795339107513428e-01,-5.982603430747985840e-01,-1.187886819243431091e-01,4.773719906806945801e-01,-6.401415169239044189e-02,-1.144789755344390869e-01,-1.953190714120864868e-01,1.405923999845981598e-02,-1.682764887809753418e-01,2.251120060682296753e-01,1.077396720647811890e-01,-7.393129914999008179e-02,1.352373510599136353e-02,2.756036221981048584e-01,3.273705840110778809e-01
-4.604929685592651367e-02,-2.647978067398071289e-02,1.067488789558410645e-01,-9.243011474609375000e-02,-6.371808052062988281e-02,1.831817626953125000e-01,-2.387863993644714355e-01,-1.574652791023254395e-01,2.264542579650878906e-01,-1.569547653198242188e-01,-3.476279973983764648e-02,2.702605724334716797e-02,1.778202056884765625e-01,-2.301090955734252930e-01,2.005395293235778809e-01,1.813305616378784180e-01,-2.007306814193725586e-01,5.612289905548095703e-02,-1.650081276893615723e-01,2.330262064933776855e-01,-9.244185686111450195e-02,-1.931634545326232910e-01,2.258694171905517578e-01,6.914454698562622070e-02,1.142843365669250488e-01,6.827867031097412109e-02,6.213855743408203125e-02,-1.947175264358520508e-01,1.674337983131408691e-01,-1.697350740432739258e-01,-1.348878741264343262e-01,9.780901670455932617e-02
-1.164433266967535019e-02,2.370751351118087769e-01,7.561647891998291016e-02,-1.170061305165290833e-01,-2.513635456562042236e-01,2.246201187372207642e-01,-2.872061729431152344e-01,2.840266525745391846e-01,3.708770871162414551e-02,2.317379415035247803e-01,-8.385003358125686646e-02,1.819397062063217163e-01,-1.126014441251754761e-01,2.002551108598709106e-01,-9.414682537317276001e-02,2.863772511482238770e-01,1.701188087463378906e-01,5.500728636980056763e-02,2.349472232162952423e-02,-1.572775840759277344e-01,-1.033979933708906174e-02,-2.276961505413055420e-01,-1.122828456573188305e-03,-1.082703396677970886e-01,-1.169983074069023132e-01,1.704912334680557251e-01,-7.222759723663330078e-02,-9.755261242389678955e-02,3.294117748737335205e-02,1.989522250369191170e-03,-3.119731843471527100e-01,6.500262022018432617e-02
-3.044292703270912170e-02,-4.569408297538757324e-01,-3.137917220592498779e-01,1.897499859333038330e-01,-3.004691600799560547e-01,2.680544555187225342e-01,-2.302280664443969727e-01,-4.347827285528182983e-02,3.103554248809814453e-01,-3.517403304576873779e-01,1.864628344774246216e-01,1.658656052313745022e-03,-1.982899308204650879e-01,2.015778422355651855e-01,2.389302402734756470e-01,5.248929262161254883e-01,-3.425863087177276611e-01,-4.400885999202728271e-01,4.503639340400695801e-01,-2.922767698764801025e-01,-4.380745068192481995e-02,-1.490552723407745361e-01,-1.073575392365455627e-02,-2.055567502975463867e-01,-3.705152273178100586e-01,1.687370538711547852e-01,4.471977055072784424e-02,1.580410450696945190e-01,5.740281939506530762e-01,7.441909611225128174e-02,8.348049968481063843e-02,-2.101949900388717651e-01
1.663324832916259766e-01,2.676240503787994385e-01,-3.385961055755615234e-01,1.995882242918014526e-01,-1.853468269109725952e-01,1.800176203250885010e-01,-3.012175559997558594e-01,2.938738092780113220e-02,4.551544785499572754e-02,3.321111947298049927e-02,2.775833308696746826e-01,-8.452751487493515015e-02,1.823771297931671143e-01,1.255607604980468750e-01,-1.074724178761243820e-02,-3.850931227207183838e-01,-2.559175901114940643e-02,2.655963301658630371e-01,1.955744624137878418e-02,-2.236997932195663452e-01,2.028042376041412354e-01,-9.476272761821746826e-02,-4.164582490921020508e-01,-1.893950551748275757e-01,-4.025193154811859131e-01,2.100471779704093933e-02,-4.248200356960296631e-01,-1.691984236240386963e-01,-1.033489853143692017e-01,2.275146692991256714e-01,2.198691517114639282e-01,-6.383345723152160645e-01
