1.061123907566070557e-01
0.000000000000000000e+00
8.564142137765884399e-02
5.623174831271171570e-02
-3.121460415422916412e-02
6.658149510622024536e-02
5.350534245371818542e-02
1.665584892034530640e-01
-5.220831185579299927e-02
1.406942959874868393e-02
-1.515099313110113144e-02
4.035707097500562668e-03
-1.480145752429962158e-02
0.000000000000000000e+00
-1.439739316701889038e-01
3.079152666032314301e-02
-2.595418132841587067e-02
7.285138219594955444e-02
-2.312421798706054688e-02
1.113826967775821686e-02
-4.518560692667961121e-02
-1.570426970720291138e-01
4.027478862553834915e-03
0.000000000000000000e+00
5.636380240321159363e-02
0.000000000000000000e+00
-9.082873165607452393e-02
1.278156638145446777e-01
3.569703176617622375e-02
4.356104414910078049e-03
8.271538466215133667e-02
-1.377233117818832397e-01
-8.231952786445617676e-02
1.383171975612640381e-02
-5.011543631553649902e-02
1.087753102183341980e-01
-1.589201390743255615e-02
0.000000000000000000e+00
-1.223415974527597427e-02
-2.627632953226566315e-02
-9.583736211061477661e-02
-8.658911101520061493e-03
1.172580718994140625e-01
4.359745234251022339e-02
-3.621229156851768494e-02
-5.095924809575080872e-02
-1.563817262649536133e-01
-5.339600145816802979e-02
-9.676344692707061768e-03
0.000000000000000000e+00
-8.471534587442874908e-03
1.232735440135002136e-01
-1.248726621270179749e-02
-3.261019289493560791e-02
8.504637517035007477e-03
-1.955052092671394348e-02
2.893897704780101776e-02
9.844220429658889771e-02
7.984893769025802612e-02
0.000000000000000000e+00
-6.366149336099624634e-02
-1.213472262024879456e-01
-7.057378441095352173e-02
3.242944553494453430e-02
